solver_type L1R_LR
nr_class 6
label 0 1 2 3 4 5
nr_feature 4999
bias 0.000000000000000
w
4.826474291743960 -4.835397580583851 -3.266518560498362 -3.349775331038962 -4.825362794938661 -7.934129415235808 
6.054032727301975 -6.311186353161372 -5.722655844698029 -4.327727894959314 -5.509069981424024 -5.316318257894050 
-6.388817828428967 -1.390448197666019 -2.325971996501499 1.360194293390763 0.4970753093233799 -7.015039156477033 
-0.1305357344111055 -0.9232865609363476 0.05122546704546987 -0.7513061286673723 -1.291837973303509 1.111933242682063 
1.781158749827672 -1.762150622783866 -2.342304135510567 -3.607089807522231 -0.02039163849467642 1.121134784541275 
-0.2864541479431779 -0.1216360208640048 1.661442781049537 -0.04489613132408993 1.437498558030362 -1.975643674184366 
-0.5795814546977904 -1.158525120585837 -0.3827445571323145 1.954455428048544 2.043046595456171 3.337943514947406 
0.2301334644602189 0.8481706891555602 1.242955596167623 -2.686927081124733 0.8485042925503932 0.2434649102558294 
0.3731203423892548 -1.324936247810639 -2.240969217814647 -0.8275755575606192 3.319680683420697 -1.533407687932017 
4.002369712493515 1.062206533321604 -1.845926579689383 -3.214045427511868 -1.586778846093102 -0.7722350262739721 
1.504252327686534 -5.535011193686144 -1.990729738276308 -4.288471295428606 -1.754865836085896 -5.783861386295575 
-0.05714635169877913 -0.6000037568448637 -2.596415106452816 1.752563941213902 -4.384658044091390 -4.454776218587288 
-1.827031568445630 -0.1300663030659121 -1.810654209213939 2.361339684091859 0.1458576772023027 0.2393810798056789 
-0.008284351381758925 -1.243830641836641 -2.864261946792157 2.222318757472931 -0.4377819722569851 3.713749803841895 
-1.169153156091703 4.645839050388227 -1.167687201876107 -5.432145190214109 0.07012024597161659 0.8847192767682122 
-0.6279005052803648 1.328888756478905 -1.294761752735487 -1.546342369939426 -0.05486743703762892 -1.076678661262524 
-0.6348027766472256 -1.826910621246956 1.645168863776759 1.631433389011745 -0.7428892143749480 1.771773095287362 
-0.1240194998510866 0.8453458019430027 -1.620509879733125 0.6612354604730100 -1.181989251918920 0.9751126135568546 
0.7031325153687814 2.859084112088691 -0.1101228529065896 -2.678806526246754 -0.1525067459195726 0.3040103503988299 
3.185355942859772 -4.613377893896928 -2.357097015774476 -2.508222377946523 -0.2789034557546303 -0.9506683499714859 
-1.298689716851268 -0.9219293987156153 -0.3014961586811153 -0.002316790889741044 1.657863429764825 -0.06059636560153092 
-1.442516994738746 -0.9282391096336937 -1.388432747463302 1.750542757987378 -1.360268516431920 -0.9104689788598435 
-1.778364426330893 -0.1128334638651932 0.6367181521410508 -1.728528467838323 -1.670574928831303 -1.562526134773302 
-0.8272610256967594 2.284533093663436 -1.565227504094984 0.2945053652186349 -0.3173452126469131 -3.675937021665895 
-1.028667671708618 0.3293970438808127 -0.08668014053336737 0.4083649496042456 -1.501585389567478 1.365365648055438 
0.3587691694487276 0.1344361120435182 4.006126803507045 -1.547505111615147 1.622493349582892 -0.5423512246506349 
3.052049437944912 -3.541989067400070 -3.032145712399005 -1.532777520439754 -3.951623596332695 -3.263206037877850 
1.720925177418415 -0.5487725858425637 1.108306138665153 -0.5017988663634922 0.2037482627006768 1.790705518291818 
6.208219439606305 -7.094511219851371 -2.016844496485754 -4.994245338133654 -2.788715294226889 -5.620121947040015 
-1.697248570508398 0.6178021735919973 4.002836742739677 0.2275051232046545 1.167571572309350 0.7948096766120842 
2.426258906635837 -3.997517320550795 -4.900237459645187 -2.990944044305878 1.597730035525110 0.9372139210193391 
-2.223212179445008 0.9086608346763225 -2.337411063992848 -4.785005535606446 2.187285728742068 -0.1372155289252189 
2.615298785841392 -2.644957959000776 -4.029266028114683 -0.8684287548979641 -3.469098370401146 0.6264046620839919 
0.3736676765609472 -2.639050071290955 -1.366202660450596 0.5540336939180506 -1.310837304253574 -1.629451844281675 
-0.4470183428175446 2.355312064180503 0.4318569581301215 -1.035890957154386 -1.325803221669360 -0.2504417332660432 
0.9632643531113411 -0.5795992483883489 -0.4135057495083435 -1.331554867401926 -0.04171957517952426 -8.201261336971836 
-0.9196844290566303 -2.834755319292812 0.4848275975316236 1.639861795980706 -2.698505844678510 0.7004877791574812 
1.305491252460361 -2.624146032305362 -0.8416877974538384 0.5215218119139665 1.959347818777248 1.585072750045004 
-1.834127501614725 0.004032320435492478 2.597258255223399 0.5559897271965548 -1.750792232847923 4.468895279139697 
1.359496027078038 -2.938553560706677 -2.842737638814565 -1.198907866852936 -1.301910864989811 2.672553200531979 
-1.360479518070004 -1.590316594929510 1.344999692888712 0.1721420005840973 2.739243525064210 3.708076936813076 
-1.061705184885393 -1.074434836628734 0.8446568704580635 0.6351532366206515 -0.4118590746612275 3.620443348173739 
0.4234033507194273 1.947629713330786 1.248034303003711 -0.6259265337432051 1.436788052776507 -1.253924082283219 
2.394429616968035 -2.073610148195181 -2.474939170921985 3.003605157757805 -4.297260348761867 -7.360072373725240 
0.7806210591201574 -1.342553890054808 -5.832292284877904 -2.309900544683621 -7.034020217605195 -4.338790813131992 
4.433049447246519 -1.572179188443272 -5.516146194693323 -2.414692990745631 0.9628280515679287 0.1785567694671765 
0.5503092010754517 -0.9833974446043958 -1.482648028732312 -0.04831440307607567 0.7512224814427035 -3.022383877367716 
0.1402316324234138 0.3862377707490535 2.459650063979310 -0.7284173889224995 -0.03389207028821334 -0.7157402838798135 
-0.1722021961511958 -0.05069979007377158 3.200722934558760 -2.175966641260411 -3.276193739023532 0.9554410701346637 
1.385563984462394 0.9600429144652608 -0.7655936259799765 -0.9913444259234718 -0.2808330489744210 -0.5438841304746488 
-1.856523675972277 2.473265591325303 2.533875609461757 0.1659700420587244 -2.349460002318998 -0.7393417660433298 
5.118724937835802 -2.993445408970792 -5.139845958413130 -3.372851828989670 -2.953362882397262 -3.766844710375960 
0.4914617364635598 -1.323612990510797 -0.5140786585083734 -2.111739678885032 -0.6494123234321527 -0.9951524771273971 
1.182761268202806 -1.655995436065189 -0.7159351675876626 -1.237849805735213 0.7499878079077738 -1.586990062169434 
-1.383254779346468 -3.498744073496427 2.389193545659091 1.202723081074396 0.8997811238965143 1.697081775569590 
-0.7178503875854636 -0.3724883338552370 -0.9001192655234664 2.067761195597667 0.5883317811408001 -4.965096311192002 
2.729053295166475 1.439964102929289 -3.547370801395633 -1.432344794520917 -3.516144855956123 -4.703400412487246 
2.985694213763541 -0.8001095812539812 -1.369072471317875 -1.338038916773573 0.02826680970242736 -1.305670201543809 
8.126286999403208 -7.432280579719848 -8.678254324331570 -10.48457393958605 -10.98805490670723 -9.404028354769798 
-1.820404836918048 -1.361180359578130 -0.5175673844890106 -0.3427097007760435 -1.251362820607366 -3.429131476661842 
0.5403629025298334 0.3838413262758166 -5.455083936999970 -0.4344762590712242 0.1352558408218123 -0.5282016237962130 
-3.786020018643741 -3.202450695017678 7.640462508340834 -4.650665213371469 -1.219651973237096 -7.164226897785456 
0.3384502989653039 -0.8792986384931063 0.5219068401120290 1.659201065980622 -0.3793846956678530 1.723116965725492 
0.2087529501765908 -0.2953098478834696 -1.681823692858303 2.958179572022369 -2.812588433564390 -1.222648734838651 
-0.5116324713088981 -2.333226986044291 0.4181229468443986 -1.148538641867634 1.379211312711977 -6.856602180429226 
6.547209488765272 -4.634358985371967 -3.615070768104318 -4.983112494415378 -5.052027613920151 -9.085212525059390 
3.608149518027106 -4.634633715158727 0.4168259859763399 -6.491657077870519 -5.076207202527618 -4.745471611758171 
6.513538528975760 -6.266277906330920 -6.366677959618617 -6.321488890251095 -2.635105526066339 -10.13754439727418 
-1.374784529198795 -0.3899416847906553 -2.489379678483810 4.469488636468297 -0.9181716019587812 0.6148744438438314 
1.580682484913052 -3.559076322475516 -0.7001512577723449 0.9318394810197662 -2.126304892317889 -2.641862630893679 
-1.188716391719151 0.01356683664058187 -3.415114118460357 -0.1138316957092920 -0.5942891436948469 1.340118293044539 
1.116426085137822 -0.9885245848648099 -7.435767583591280 -0.06584871230435815 -0.5728842872546271 0.08934383857338857 
0.7959935538570326 -0.6570666736635190 0.6103593966803132 -3.220693993824896 4.551516913505723 1.553353263658116 
0.08445813341009972 -2.059785457457500 0.6689785439093927 2.394373397506503 0.5329919730595845 3.132252157128642 
0.2280778571268326 0.9165611948946224 -1.307467671745987 -0.6579473542853803 -0.6159887858083558 -1.495738332485350 
2.057171810330276 0.8641427610600503 -0.8577969098434520 -1.387876577944317 -3.865852933656205 -0.3715454206983464 
0.6656894809580856 -2.724477286665274 0.06098663665387477 -1.506359433187019 0.9164662839533984 1.410051649469426 
-2.720008636840318 0.07025937986344523 -4.861554105687080 -0.4866674451116062 -0.4620836586797530 4.035267169031907 
5.986100339786027 -2.355247828511337 -2.237898575665430 -2.306122932623698 -3.920620573627962 -5.312874989201746 
-3.576117705555393 -5.043315713526345 -0.8763953206464188 1.669380965434063 -2.312484321354240 -8.987332286137038 
-1.325776274255477 -0.6280347448745360 2.247354258329247 -0.5255669249018101 -1.376233779106958 0.02584401410804743 
0.3939454839921136 -3.316853278882573 -1.170029557504093 -3.203102322273210 -4.830208261813676 1.072531798082768 
4.705264844127923 -5.615926761619749 -6.689360888470846 -3.976830721288032 -2.368831152767334 -2.389701807603938 
1.366000262889979 0.2871702775950640 -2.205887147557577 -1.230185080023599 -0.08075604958451116 -0.8548083056244773 
1.768062050829212 -2.027732146850838 -0.4715210585507478 -0.2303902049735238 2.179263613041672 -2.390762161703992 
-1.539389169891127 -1.647701583887167 -4.025356825527125 0.4042311222260164 -4.342890634332284 -5.598028926635976 
0.9855628216878707 1.919697495458379 -1.239250415980404 -1.302098090307637 1.704594949350082 0.04353499671267112 
-1.643677839406723 -1.338294788360904 1.676352258933890 0.4161661594560661 0.2597920179425226 -2.886196689218823 
-0.5516323031377235 -0.3975840955774839 -2.547849505544557 2.612711800774969 1.781935720713834 -1.980828585640388 
0.7237408551207997 -1.200428549476235 -1.606192704616791 2.135298781833465 -2.668340843622909 -3.141725643071987 
-1.698183091466955 1.976424819294797 -0.7800116166214549 0.6321248690461255 1.665351079407547 -0.2613418858283764 
-1.393655788059885 0.8074971417383718 4.155322563826588 -1.719159803144413 0.8572139506800263 -1.459969419509214 
1.834353975160299 -2.067198350040371 -3.988018752380620 -0.3630858824978280 -1.364702449951463 0.2113532391883758 
0.8478794486376917 -2.383715598527636 -2.280509766525910 0.2750975856532130 0.5918870757082716 0.2925536378592301 
2.191902951096835 -0.4858919960687755 7.368734847496006e-05 -0.7358938220324706 0.8011960030045158 -1.737501118886257 
2.639811073911731 -1.125570003844810 0.1659722625003812 -0.9501378829405053 -3.482941330679527 0.9160175870399941 
1.396057958849933 -0.3623011992436577 -0.3027544651004980 -0.5834615320092879 -5.042199771366719 -3.767246023822265 
-0.7007862909526120 2.569055405814944 0.5812763825224590 -5.239141006037835 -0.9933532645558368 -4.495655353030276 
0.002054602868416994 -1.374974267263568 -1.284636436740726 1.341771587296494 2.695044832847769 -3.004535189059775 
1.792868031738316 -1.453408783358369 0.2091338348832480 1.272029011876902 1.552386179617220 -2.794674099928852 
0.07319834201326983 -0.4263154808751578 -0.4078808337145251 0.5505231457918607 -0.7812774804824223 0.2407112119896214 
1.800341789390896 -1.399094290840529 1.889734374546686 1.128571252449912 0.5666126125347494 -0.4009695059819980 
0.7274775407755533 -3.920148539841615 -3.553436295244560 1.344418920938633 -1.392400415579983 0.01448396232955329 
2.986775545502386 0.4937122190919508 2.210696405007765 -2.348537439554576 0.3581452171003151 -1.580422094789272 
-1.894552029746400 1.854629798493881 -1.060935846201892 -1.583151608666819 -0.2450802588313308 -0.3480651071269757 
0.06678299837108690 1.507966403351779 -0.8907559883893761 -0.8217411151044685 1.118689147974888 -2.587779335916939 
0.4423398369741077 -0.8655780100500269 1.008462070592972 -0.9526241281629353 -0.1321884341631028 1.929275406878005 
0.08440073624746038 0.6167500545802247 -1.748510976964140 0.1143674765489696 -1.807819048094828 -2.339378479665359 
-1.223745528634009 -0.5151873593350063 1.431788348654631 -0.3401905415099579 -2.993782016613556 1.410261476591911 
1.514544299388801 -3.586106270341387 -2.142336074052687 -0.03159476885660613 -1.458868259956604 -1.093752149547557 
0.05735305616482678 -1.485012827162827 -1.129894028160116 1.018872626263584 -0.7155598396803451 0.6946209026336863 
2.795438134525872 2.530062708235579 -3.041882852858884 -6.961769977661289 -0.2559925249323243 -6.182124588618221 
0.5989797020409927 -1.903193412757511 -1.725178244855544 1.807312324730098 -4.710904221434419 0.4219466557732182 
1.055360949704534 -0.2006973159072293 -2.557328015120762 0.5941892983704441 -0.7978474577920108 -3.701925534320028 
1.156335794075986 1.726385378262303 -4.112709706184852 -2.237952514539359 0.2310118507473382 3.806648201886348 
-0.4561755668029029 0.003648973476345768 0.8867958662324269 -3.313420826192408 0.9356759676380635 4.002852472473172 
-0.3530035763839229 -0.8587191381159616 1.528026410102737 0.1668327115762730 -0.7529670660060259 0.3705383878069714 
3.747322833604633 0.1989701897017523 -13.38279173761315 -1.478330389367287 -2.631549768219937 -2.288895230974298 
0.5833150014229139 -2.415235316322064 -4.566396469543538 0.6503215870117187 -3.126435232580095 -2.451659790914651 
0.2293792995817996 0.5810043425417506 0.2524614886482885 0.5698088051750156 0.3863963199039999 -0.2717069910671364 
1.670123568613417 -3.147262563344687 -1.436461955149670 -3.387635731115759 -6.413310830960662 -0.02590549646626761 
-3.316529574465119 -0.8222348096199575 5.495579197945240 -5.908065255882740 -1.797340106467964 0.8468282253443788 
-1.088600575005184 -0.8687562054839258 -2.868983859148345 -2.749741369919639 1.993071501181984 -2.018425868622358 
2.311637785128418 -1.696312012100248 -4.367779117882506 -1.634607038886704 -1.141319617871637 -3.953427756363423 
0.8668607766794851 -3.716655059597299 -3.271936707584862 -1.214251999781756 -2.147841073719555 -0.8825005512715338 
5.186115252657876 -3.354067761897740 -3.710741741569998 -6.811412469448345 -4.490043352135373 -8.099259702732025 
0.5999778397128102 -3.209415534294869 3.425969672701325 1.248563536696800 -1.646336949119694 0.8307730295832523 
6.111527769078756 -3.679821845809395 0.4664696583188651 -2.720449328952296 -0.8661901959089362 -5.953399729981812 
4.855710518161752 -0.4474516006021082 -6.575309973035123 -0.5499557637375800 -1.540249612082454 -1.570501753734800 
5.115017038429192 -0.4784423780774596 1.234475780262422 -2.836235784195904 -1.851919890075327 -5.333962053311091 
-4.064010065200743 -2.519422506204234 -2.621770707069081 2.990940197019614 -1.857185623207682 1.892831411895821 
-0.2664931431772215 0.04010229097547521 -0.09979477293912056 -1.278019608759663 0.6652442715683918 0.4491143332062511 
5.947254866178607 -5.363101771044881 -4.069737844803197 -10.14839936283859 -1.686215152491223 -6.693827112780995 
0.9109635888250192 -1.515399752522577 1.830726064698139 -0.6969249747172659 0.8264105854282231 -0.1774224364125565 
0.9491029584058392 -2.477523567133214 0.05961093494196337 -0.5180305962199039 1.258372700376263 2.592298436380637 
-1.764426001264333 -3.249413566152837 -2.564976603791436 2.404675949966764 1.305503090968147 0.2527170295655993 
-3.284510910411501 -2.252341818638423 3.312739143381552 0.4698033373801257 2.592133430043299 2.011192381614177 
-0.3933516683071730 -2.088324102152757 0.4206111210437573 -1.054809224686096 -1.995161041394396 -1.912061579259125 
1.159503635786465 -0.9446509499017444 -0.7446451318843795 -0.04203349674300172 2.319214951009235 -2.650542942376212 
0.3933280018645400 -0.7265907852736329 -0.8330107020871962 -0.7200121939817150 2.228050707557350 -2.962647688575165 
-0.9869194248889981 1.616057975118655 -1.783446916360684 -0.1547564803371761 -0.6312192566636263 -0.4971188869752422 
-0.3846968729827525 -0.7537739199525192 1.406792403821320 -0.5628932918349607 2.573604864477637 -1.492444626819126 
0.9658164619701954 0.3818404659863436 2.664492047768321 -2.274285585132041 -0.09579637658660796 -0.5811662127075040 
3.561551135300697 -3.691541635121340 -0.9374294776484127 -1.754949570022646 -2.379858639270027 -7.388240466771587 
-2.843442784124547 -0.04919642555118182 3.631688404020664 1.242123510078007 -0.1620622177200632 0.7724768906200958 
0.4801412731798195 0.2904452412042258 0.6100116720037420 -2.993040746415799 -2.214859636390319 -1.971358004172555 
-0.5248349754855436 0.7732744477253900 3.849213227130211 1.970861403191924 -4.192531713566888 0.5868306291825827 
0.4930374733107051 -1.099020790849351 -2.991950870346955 -3.206172602607246 -1.720511903815718 0.4210059931229191 
1.495911199801816 -1.680573929869818 0.2933652425844812 -1.760702843836744 0.2221171279217407 1.218969001204749 
-1.641628647869110 -2.254530326834492 -3.400240159402323 1.072900028958572 -0.6585772827841354 -3.743269851329398 
1.998565463558607 1.610058099349926 -4.003044575168416 -0.9943644456698560 -0.006948932922147641 -2.573443064116666 
-2.129099488591152 0.9039091062848859 -2.538115823546576 0.7994498525347374 -0.9145871511203486 6.825485965893810 
2.723768545703247 -2.736948751304563 -4.274101678436471 -2.510367967578234 0.7333062547831196 -3.194118391138164 
-4.696991365711049 -3.448146897023212 -1.250313262613070 0.3777581786716200 -7.501799717734663 3.621322339702343 
-2.396598686716223 2.620198651522094 2.793757331251671 -2.001677271130968 -0.08562928406287973 0.1403995842112761 
0.1159042659991906 -0.02235901925418565 3.366748836410275 -0.008405016659463607 -1.510344899860632 1.311124410099338 
-0.2981633942567281 -2.508057989091038 -1.534864490489411 2.026481939991052 -1.901911565997045 2.773406623741805 
0.4348110936475067 2.571502946229876 -2.619119617325354 0.3850036261661554 0.1106813829904403 0.3799431123975715 
3.520984460447616 -1.264771397272119 -1.219411848068398 -2.851102136116065 -0.2741445980906777 -1.877203458674338 
0.1833651913919135 -3.743617247284941 -4.828479535592686 -4.855666194119053 -1.878144863334699 0.4732550942726330 
-0.2002129711675026 -4.442952069244543 -4.119894677622704 -0.08522273036549409 -0.6467578449758893 3.235754589445855 
3.708534244839044 -0.3071666925757730 4.817386381911894 -3.750891726999518 3.616389664235862 -1.339982108230622 
1.169329597994234 -1.508909140641010 1.903401487047475 -0.5755280962274025 1.418265073777683 -1.196178691544353 
3.096189486144479 -1.892108159020433 -4.841560334144361 -4.529047476782093 -2.917153361289209 -2.989515396358718 
-0.7754944160533127 1.491062111021708 1.768058040911714 -2.222759023529552 -0.9098671013187347 -3.906603230963844 
-1.488360573003354 2.770555996023310 1.617882304053730 3.492486978277102 2.417473290614326 3.203317750923413 
0.6901926628167524 -0.7521129344319479 0.5393276980642573 -1.169536357339588 -0.6767983440810055 0.4960357479006613 
-3.490723214081926 0.2090499473767508 -4.275400969966295 4.139288193887061 0.2399348428008012 4.735032400249917 
1.800552471024212 -1.490753750763407 -2.059395688987834 -0.1290823236311467 -1.220394394605296 -1.909134287935719 
2.233379059109499 -3.220628387353796 -1.900315260458253 -3.016469957781262 -0.6318102926219743 -1.748446410601971 
-0.2033657235918616 1.282518029648115 3.597644256911968 -4.321098388219106 0.7683851515672651 -2.230004236423182 
0.1559337218026933 -6.300367621684438 -4.945889712436429 3.711113642957575 -1.282003950128308 -2.852778032273398 
4.705420226152920 -1.369815827167074 -6.797226459418334 -3.614391918616802 -2.784160603487130 -8.635564405931309 
-0.4549488681800521 2.563029259098368 -0.7892367584852331 -2.567499227277540 1.113399353797451 -0.6576945790823169 
2.253968697130135 -2.184780693293022 -1.246031416946768 0.7324056716377670 0.08528676313593270 2.372062543777604 
0.4686042553875062 -3.502422373087902 -1.150618184640109 -4.181156930652533 -2.472836175634499 -7.302071109891919 
1.119159627741543 -3.213897352519398 -1.979315592623911 -1.497333040393182 2.676934960935920 -3.456475271663067 
5.360524923210153 -5.137840686913903 0.2329940423424386 -1.588323018403938 -5.178656075874867 -3.286606913033262 
2.523120369282325 -3.208076856558451 -0.6001904095610979 -0.5252839819667093 -1.648903467044932 -3.338758182284324 
-0.1481347899715851 1.147072619576293 -0.2218470597319205 1.161481182346900 0.2570582869544402 -3.151322208184268 
0.5459133775521858 -0.2700101451245396 -3.143938152651546 -0.8507128589364176 -2.212184136356913 2.668081548066332 
1.107375576766327 -0.01365262826647541 0.5648639690560148 -0.4760398441704045 -0.3994337930490492 -2.999082857335227 
1.679452183157932 -0.3319299710811486 0.6941707053636099 -1.350051872114386 1.750468062358526 -1.652177279317885 
-0.8908028920164699 0.2805412522898957 3.416136399724419 -0.1393874896016109 -2.365919087576167 -0.1682403619900075 
-4.464110651947900 3.534493656934179 -5.542075388122711 1.301953495776564 -2.680441779077719 -8.877653924244221 
1.631510106437207 0.7971285064518151 -2.510038920938775 0.7171279666132936 -2.895123579867603 -1.198336080608957 
-0.1239738541448082 0.3376927309182932 0.3406412211391547 -1.976538670839160 3.358730413372460 2.704518734887565 
-0.4475886243373248 0.05988646448098409 1.370248202146150 -0.5905136950743402 -0.4838228487197651 3.249814150411907 
-0.8998292079980563 0.09524980064240568 1.861174515674656 1.337120547730990 -0.7840429548881851 0.2349953570449739 
-0.5054697829501131 -6.531740099421436 0.2824113616439778 -1.789602034461239 -0.2411930058748441 -3.130192878218018 
-2.503864263072666 2.876077873787334 -0.1496708665686022 4.179911649605347 -17.62095868411739 -6.382391844306637 
1.860730859586388 -2.659173130125468 -1.485793322924456 -6.516899919682568 12.69190115264384 1.399814059407953 
-1.234218536158556 0.01443813169014988 -1.254610549868523 -1.484982303832117 -1.683094533306531 -2.499816405888265 
1.948093938262384 -2.236853203557782 -1.079301625702966 -0.4898607719723344 1.092487661998255 4.267640606780333 
-0.8421491998282221 1.265872120866525 0.1015492894278599 0.4360344879428294 2.474438511594852 0.08596949408216303 
0.1627386483969086 -0.2156581754466625 -2.639461552831267 -0.1604893442916820 0.7571698850993303 -1.636500831552619 
0.9860639576188203 -0.02816630895002534 -1.230387236266833 -1.398051576563995 0.3862777421523371 0.1129487660501170 
0.07979447488191460 -0.7079002796544592 -2.421219944303135 -0.7303563462275026 4.048072605439864 -4.513215256226947 
5.504881273279995 -7.345244869347453 -7.776703923236570 -4.087765641706642 -2.891238788333207 -5.916569804524228 
-3.069019554868729 0.9790954125104563 13.03737645736099 -3.235632827974126 1.428135307381933 6.311407822168233 
1.467945386179454 0.7660107775075181 -5.659754960926249 -2.110245767598420 -1.129188503950129 -6.500709769142329 
0.1246852886226160 -0.08744968445851868 1.371287512915681 -1.361369670925323 1.417256305465796 -0.04086885414501482 
0.3265039968687383 1.777593523643752 -0.6731559055699731 -1.746767832961184 -3.602986138323635 -4.076887105047921 
4.715997655415766 -2.148190891504903 -6.941251848546926 0.7151306165757230 -9.400850648352643 -2.774170648899178 
2.521035151699937 0.9020072539271246 -1.624660892402043 -2.311478307204455 0.3498966243306196 -4.048061082805403 
2.383645362041603 -2.072149236705685 -0.07861661289053999 -1.396081647199831 -1.434952273602193 -3.350773107240875 
1.153710939733940 -0.5723460449070922 -0.05925873559045318 -0.5053742983687150 -0.1399051511759007 1.708500918531510 
-2.913760148621644 -1.011491382651263 2.556821374311190 -0.07235326891638487 0.4640036220559918 -0.3274078218863152 
1.760110661760430 -8.368006576854608 -8.367539058508457 -0.2520880750814334 1.281976740314074 -0.7136080655138077 
1.183849774895377 -2.097185894227830 -7.608128731750169 -6.999793468218497 -11.13496478744297 0.07895930202804743 
1.200279504166382 -3.493743233358515 -2.029850578201087 -2.068562293415478 -0.9283616015333144 -2.424570882493403 
-2.429531592779622 0.02165917549871852 -2.479741512607208 -0.3093245432789311 5.683566628599976 -4.352076580765926 
4.062310972710159 -0.09065956428573285 1.152184120693532 -2.659294931227565 2.911266208431565 2.518492016310898 
-1.184546014847902 1.492275223154438 -3.437199928868423 -0.6456235408456854 1.792407407955795 -0.1488524610484373 
-2.733767579494593 0.6186706266065726 0.2303905661435433 -1.485765049191295 -1.830808858538168 2.419260943880868 
-0.7477389267568433 -2.240334718404792 -1.313001540374334 2.406893504398184 0.4196852100797212 1.311029114832609 
-5.310864129831336 -2.719819729669138 0.5392059235954242 -0.07949928509206526 -2.125920058184020 8.444876776381712 
-0.6060976937150527 0.3920565098071223 1.152160967897948 -0.2013082998971080 -2.257019810910718 -0.6111917222889830 
0.1397668736506149 -0.4586905472580196 1.152266149447296 -1.048609386101998 3.241360076827408 1.548149268035615 
1.124959136623543 -0.9893041424475613 0.5287571015336402 -2.353521868962743 0.3692130774322793 -0.4804038975746010 
0.8228894323043782 -0.8063884441673200 -0.2956897706002423 -2.577781379529353 -3.259152054667701 0.004613654154172652 
0.7549877381353406 -1.158773094995059 -3.597607033883075 0.5134501664042224 -1.518184201681152 -2.675470070803856 
0.1309302982256839 -1.717338427523704 1.632537479523946 1.561515364523917 1.854747434116769 -1.347356697765768 
-1.317428672546632 -1.482884841037244 -1.253454748766165 0.06303319796146539 -0.1513038263291844 -2.320626003628096 
-0.5340056971276448 -0.7338777518555086 -2.920675938130532 -1.568944396011937 -0.2201761508453953 1.869039447523800 
1.854668607252990 -1.494135466057942 -2.349006267522320 -1.698075913745717 -2.431815928481147 -0.8112312940215823 
1.112414392445123 0 3.833234512913700 -3.296389831326609 0.4869869457734501 2.965465804860666 
0.01557773917997898 2.996977661666059 -0.9778882441697637 -2.285721159247564 -0.4229196809255745 0.1938627903361971 
1.044772565610581 -4.045707374603911 0.1970504905317656 0.6444149141118032 1.128673059872497 2.978694584792908 
-0.1470468300028512 -3.448156520966339 1.717598280426409 -4.454991518173414 0.4028980498503427 5.826584581856699 
-0.8571246295344725 0.9157150981409775 4.132938925098991 -1.995256379345581 -1.037691137860061 0.7630738804588740 
0.5636109357445588 1.394204471596630 -0.4854150443150276 -0.7688442088720324 2.204967895107934 -1.711143416247287 
3.383580554945093 -2.264384160267448 -11.31814114250442 -4.033764758357861 -1.541083298731238 -4.613452860829971 
-2.013349996041813 2.228255236758312 2.380315407657331 0.1424193875402839 -1.279020809147951 -1.760300372855741 
-3.334212728362645 2.714967446762348 1.904571880953310 2.551341912288054 2.109549884807816 0.7731468384445326 
-1.085163519710211 -0.2343300284558296 0.3722604486775458 1.622328943532716 -1.791405362612851 -5.772050996841314 
0.4961032961057744 -1.706731390064925 0.1723723778174691 0.4938215359568473 -1.578923981455091 -1.803508795650620 
2.369344435224900 0.4135257852974319 -1.495111458484623 -1.678217101363384 -0.2650745423179998 1.027976587452094 
0.8600468561561898 0.2821024438298261 -0.05868846593966234 1.128152594830642 -1.840386621847724 -0.7197555862308320 
-0.3063593914759507 0.8134637761359346 -0.2734250282766513 -1.052387434153467 -1.594775173136984 -0.1833104530543154 
2.667301910902239 -3.553656578875595 -6.489126668001196 0.5529867397614423 -4.383740687702993 -7.781532171150606 
-0.05519675457149581 0.6012245508955800 -0.7278962911795150 1.147573681716044 1.180639216750265 0.9488788462628590 
-0.3001428727294920 4.996787383837841 -0.9192003369586526 -1.982202364742606 0.3395280045028462 4.682718573916103 
0.4348705584870279 -5.905580775806925 0.8976502988514056 -0.08509977835474472 1.203373589068660 0.7602131090070033 
1.153246760874226 -2.268831952799676 -1.788067968896432 -1.628469912891417 -3.663403731615651 -0.7628845794403254 
0.4858760363978779 1.644673218453668 -2.355132997828042 -1.207587676947387 5.288041480470184 -1.750548978351328 
0.6841912324255286 -0.2152376866235650 -2.417813334153681 -3.370297778041027 -1.028165843740833 -6.522510413365131 
8.495905066397734 -4.175402409103216 -10.57813135833396 -2.977784979599666 -1.967471157770252 -6.559225980392319 
0.5110644329651284 0.5387526726208585 4.367858443097982 -0.08136506928669080 2.825249392692250 -5.231381080677515 
-1.206947760791453 1.369418863631903 0.9343091472434045 1.324912404206226 -4.083782215012605 -0.2071476144705924 
5.523875017888972 -4.729316833436786 -6.953405520896306 -5.707371622554391 -6.032557443840862 -6.381412613142021 
-0.7341930672400112 -0.9442749616818897 0.7073074148181338 2.077114600935150 1.224884273745875 -2.507330624655797 
-0.5833676603745392 0.5774144198177581 0.3539369094930193 -0.5568323129541108 -4.465378388225382 2.268388570570059 
-2.010765107153667 -0.08463454477539993 -0.4096805822438753 1.120650304919488 -4.343665489291575 1.055265943589910 
-0.5340220245481199 0.5886510841255992 -3.177592431761600 -0.5349801125800904 1.894778006994097 3.646294152869508 
-1.302245329207739 -1.824813275723507 2.007153556143725 -1.701631523739309 -1.170231821801027 -1.173523742912013 
-2.247304291668505 -0.003848069207752339 3.871410338854838 1.312499905608263 -2.347717845898889 -2.449758246625465 
0.6065747936205133 0.7308590103804313 1.246463687506878 -3.063710023307540 1.818950741725067 0.3567338413273370 
7.738884394267003 -7.805946446459934 -8.697595078045817 -9.032018470205852 -5.644263919617565 -8.256571308507660 
-2.685381464658244 1.740512061581406 -1.198078642550710 2.480643471604897 -0.5878333219229112 -0.3145423043754128 
-1.090200268839378 -1.922277148317633 -0.3754993624086651 2.149751492732380 -3.237184922415819 0.03735429110254449 
-0.7079973719464379 3.943905550544968 -4.515452564510643 -5.581960492889831 -1.831560865628616 -5.917940575347232 
0.8455443061085907 -0.3241166617366548 -0.8243817333418570 0.7994306992802261 -0.3363765600048330 0.1760456838506705 
-1.995055507647653 1.537612456881918 -0.7291549235797813 -0.9899122034863259 -0.8981630763918325 4.274956312228305 
-0.07452970686273111 -1.261866926724493 2.642708174552042 -2.969637999987136 0.9021742044400148 -0.8370419173029664 
2.583364269873271 -1.601082123585654 -4.916893136486124 -3.186801887033479 -2.111275278019682 -9.180951894879431 
0.5371805539473443 0.7202676517410752 -2.317499925893000 -5.730695103270273 1.606733779426818 0.9851686280761947 
-1.230004987270764 0.09844133514764061 0.9669771697756442 0.3925479625975724 -0.2321226063122718 1.367821330077266 
0.08603222522766249 -3.298633412235598 0.6614614255768972 3.590134377469491 5.485815626534362 -2.113661039583910 
0.1012165829722707 0.9259569983608933 -0.1182263167333342 1.114687284069000 1.779247931160892 0.3742094017424980 
0.5862878516332695 0.2034891949010468 3.021136382537373 -1.836276013403416 -1.738326856381715 4.221903650592616 
3.708470396205331 -4.299366916401529 -9.499612560845438 -3.598065195006035 -1.015304095684238 -4.008175166413283 
1.024047808402384 0.3004072433713807 -1.335892033516033 1.926865843108391 1.756672700879132 -3.533794307520225 
1.190306512945504 -1.199150271237029 -1.097239301186082 0.6513082389308587 -1.550707750356794 -5.270724137559816 
1.799992201078794 0.3949958424254312 -2.468751677252457 -0.5819060367316121 -1.846155081631101 -0.9762388382926644 
0.8540430301428114 0.4561018433947874 0.07362639552919378 0.2942133094547910 -2.949086739926295 -0.3656121718134922 
-0.01834547926722596 0.05460103571310271 -1.919670082490727 1.054827178806677 1.812990827395548 0.9505157036980755 
-1.539988931515554 0.4468085797153951 -5.361682006754129 2.659525742326474 -3.692537882159842 -4.683869307406245 
1.277082959712642 -1.423330860819434 2.789266979107596 -1.120350357054095 -0.9968336615826964 3.108709807313603 
0.5719672927473518 1.156958178142870 1.273865140821230 -0.7662768331620687 -1.528003453557103 -3.403540540891061 
0.9417825944165608 -1.228463348114776 -4.968926954599249 -0.8003576253725337 -2.034322222584374 4.906596914999442 
-2.030776410174115 1.167922329474613 0.1554542258797027 0.4144535575508272 -0.8510184047317975 1.283682605296218 
4.679956835897599 -4.937002212997452 -7.668601592660198 -3.407336807800145 -3.680529715957198 -8.389968796988535 
3.421161547382510 -0.8593840446863608 1.192250328102331 -1.583315757717023 -4.870853460692314 -8.880124966688863 
5.180806078066503 -9.198520336654878 -5.970638279823955 -7.436528303651156 -0.6714334947384002 -1.867717356840940 
1.253161417733606 -1.508952830572330 -0.01850927916101516 -1.642989618094526 2.799595910761554 -0.9217531376210208 
-2.657037197438788 1.534600088122501 0.4121483681012460 0.9891583337948584 -2.289929890067893 -0.9421655574219373 
-2.617641854541222 1.184969119648112 2.667911579069503 1.754480155856324 2.073286852374579 -1.858366710414129 
-0.6376358420171659 -4.793837517488602 -10.98161297063202 -3.294245595954035 0.2369117531159199 0.8703113090957308 
0.3205929155743446 0.8330907507342491 -2.097386750899168 -0.1024374216198564 0.8572239769878113 3.520302244784149 
-3.203041999416535 -0.5545387082902878 0.1087599248874123 -0.01997686259694372 0.004564618826285394 5.163683163951912 
0.4038575496898700 0.2402266602051519 -1.025013744489690 -0.2276576222843223 -0.5838884443541159 -5.254417390505079 
6.194142197066586 -4.490765324350603 -5.397243622748317 -3.305329121743658 -2.443346511403602 -7.215306675854863 
-1.620358215273662 0.5304620063364303 -2.790977774141923 -0.6483014781320158 0.9901346614196040 2.378940263589177 
0.1361874066738117 1.289734951910074 -0.1843971906873584 -2.485210231492025 0.8314261243275450 1.239370207241635 
-0.1094904681703609 1.784224216157623 -4.590791365220138 -1.309771394654541 -1.360869493694957 1.745128563955585 
5.223377807116298 -2.894146942106262 -5.337090808306399 -4.022716418525475 -6.181291338746965 -8.558980133747863 
0.7003621780385300 -1.050196806864022 -0.2124238647397123 0.7974750912568705 -1.266824542369474 -2.148133363480827 
4.405683969483327 5.513597119375996 2.295924778500617 7.563597554493956 -0.3041989114769758 1.829944635197490 
-2.821430882847535 1.407941540704448 1.451994566160582 -4.508091092997761 0.8515581770401395 1.472743995700566 
5.514039355478717 -4.633620879402724 -5.273548018760296 -2.313714368203601 -2.995665370842187 -11.51476477703647 
-1.865377246977098 -0.4982411765998615 -0.006716291472855129 1.537163644291002 2.464734253186171 3.436191768539393 
2.869872849708012 -0.1382759238887900 0.3987420847685926 -2.470990824007922 -0.1849144458774097 -10.14890401902938 
0.7045666772256554 -2.583816710473664 -3.160687888582298 -3.108647865873758 2.410956485299955 -1.654516368702607 
-1.713239303637741 1.023692981436869 -0.1664008052392669 3.198838818232636 0.7375255490891014 -3.436605134586316 
0.3358243262618396 0.5279653781690390 -1.459288088275644 -1.142660884692526 -0.08904915880910474 2.620081000443282 
-0.3623729956663043 1.856708908004000 -0.02117295038837470 -2.386426480494375 1.141858263359563 1.253071867216482 
5.357655049486080 -6.937187794454839 3.832869803455830 -7.079139883020430 -2.402474612562790 -0.3281561322467572 
1.708726899014229 0.1805391899550235 0.7576672991833071 1.185033248267354 2.817638674993657 -0.5691799457480032 
1.673362323894101 2.222889005667324 -4.778124338202905 -2.395145039502700 -0.08889654689813464 -2.591987617176239 
1.406941828580246 -0.6750332132612578 -3.667918091459103 1.045135034262061 -1.369288429266081 -6.447942664179573 
2.545796119090268 -2.678915036751982 -1.615808041664582 -5.555464218482909 0.2361149579837457 -1.231280478002991 
0.8739394775071719 -0.8839046656837872 1.472724121536561 -2.283907412035430 0.3834611832000784 1.254136245946354 
0.1046045012342578 0.4192625539534143 1.786568435724438 -2.846211484463284 2.156500505347502 2.725529724351341 
-0.3072015280259996 2.826042410368121 1.299694963605034 -2.892223716321606 0.7276611129495055 -0.8369829059410017 
-0.01990783681744471 -1.552768737285203 -3.339620441877957 -1.354667208401289 3.370940479188966 2.935469894182607 
-0.4363023934736038 -0.1090587596647326 1.817855414517805 0.4728804150504102 0.7944499864946857 -3.303307848274266 
0 -0.1633468328190694 -4.726134104945927 -3.008615267617546 -1.362699531680796 -4.552573773548132 
-0.3607942147916720 -3.681369239406066 6.359788577193122 -0.3346601911183360 -2.035023239697106 1.177208560173688 
-0.1951078138010455 0.7763374630344994 -2.337042515578126 -0.2842151403355691 0.4510728980348681 1.895076976288081 
0.3315936141591457 1.928793280091768 1.464610834147878 -0.2425363896929053 1.072271376256369 -2.325199637910353 
0.2566238220413556 0.1685795268427443 1.733324727185085 -2.215988837403452 2.181575961235988 0.2828598096530459 
3.876132345046963 -2.583232197616844 -1.745785755561160 -2.435526977966279 0.06387861631830008 -3.915339466763661 
1.329273996435637 6.328744095328732 4.738271344270384 -6.468155444846311 -1.369653845421248 1.302337779249675 
-0.2638575574495297 -0.06121303007381149 4.388539527945661 0.3500250471376137 -2.800868022412993 1.387836583033399 
0.4942978980733186 -3.007827653224763 -2.910343991589936 0.7588868384049438 1.134590075135869 -2.385311297350514 
0.3337572454175853 -0.2093660190694538 0.9887126902499889 0.1126977854136199 -0.1610429396711066 -2.949835071273906 
-0.04937616567601612 0.3995122734061669 -1.011261635932507 1.963881612478022 -2.213352850594463 0.7268319812426259 
1.716174460386973 -1.978678911931767 0.6307471269569322 0.5496798317035700 -2.924818556535876 0.5201220767617454 
0.004021871692394499 0.3623477578149691 1.101943574151284 -3.561894159668671 2.411592078225877 -0.6158408947445152 
-2.152752223524922 2.271787403578090 -0.9210010037750664 -3.434433206388321 -1.200666852026128 -3.540020202986242 
1.648886880221653 0.1950613207351468 0.8789300042899653 -3.467199365784510 -1.545654585572591 -1.259961407373470 
1.211724425339706 -0.7447961630672326 -15.48831150458349 -8.427920114024730 -4.752343243796266 6.121257332939030 
-2.194238493839186 0.4222066215503275 0.2975084297807116 0.1785046722996588 0.7318779603990471 0.6044981935943307 
5.267581272477750 -0.2930092655393154 -5.082303896041593 -2.021156211281168 -0.7675183219442391 -5.713437448000814 
-1.023135887451877 -0.5419974097451946 0.6326875822474609 -1.158977772294128 -0.3348081721605444 3.314356041003078 
2.763835315586131 -0.8853156404264901 -0.8961785671393866 -1.629403446170297 0.8498376988555446 -1.545361691098095 
1.214236671390021 -2.345794034726760 2.220802342520507 0 -0.6287022874139366 1.962244170110100 
-0.02359846697449291 -0.6968339067307920 -0.1804011107083875 0.2025874554292856 -0.3207873222819053 -4.841917971908259 
-0.3370007318896550 -2.216436089681253 -3.918208864142675 -4.412291588842681 -2.943398731190588 10.10571671633371 
3.323611453358693 -4.148331209684582 -6.038902456752373 -0.5105368023917270 0.2134788639117483 -6.321325366990856 
7.269051480218879 -5.873353756884396 -9.428429958566742 -3.856095275301637 -1.924976512959512 -10.32129228453646 
2.199129486284697 -0.2373832812035562 -1.254468625237625 -4.522888813778360 3.996513669784756 2.735977417054308 
-0.6352249206886698 -0.5281814031729670 -0.4728307909565575 -0.4855896811171079 1.300469811736285 -3.275239166480208 
0.3766920748022848 -0.02418318749268724 0.9773571457141190 -0.1250134741671569 -0.6288677170079606 -0.5537507789716092 
-1.730511477324343 1.703689403981109 -4.535972863999117 2.365999447039653 5.300551716161786 -5.335123133774508 
5.183667971824094 -3.497783854700827 -3.214439275597228 -6.415179308104903 1.013610253927846 -2.148707851192548 
0.7553862874624098 -0.1832254526380935 0.3250352478013246 0.01499460761938215 -2.779103118643167 0.1817178080844465 
-0.3645485011063679 1.490303992821763 2.975807178179589 -2.297060037243859 0.4141661740265856 -3.291976720358155 
0.7008290556889738 -0.3283890419960606 0.3900832728328841 0.6944941568686126 -1.219249084153038 -3.025501488416748 
2.864413236651399 1.470003362749079 -1.929131984726342 -1.601042290979001 0.1517104045102898 -2.875190395787166 
1.146979892999435 -2.957734222255115 1.269936641723828 -1.113362557369234 1.138415528510316 -0.8520591843623084 
-0.7840955195408755 2.161656756815881 -0.05891812502096132 0.1975718571843899 -1.663874114575687 -0.05256610725357481 
-0.2891626436583855 -1.603618114315430 -0.4141797081222312 0.2475906618142873 1.456025235025805 1.261862500882182 
0.7995787256205422 0.2075276807297832 2.281919368362569 -10.09304992389397 2.142719056400418 2.888106494844945 
-1.500424581096966 -1.526537065883338 3.108126197156594 2.040073923122953 -0.5973948380557907 4.969366445206369 
0.7067228052345627 1.459927628591411 -1.246110480551951 0.2797948846797672 -1.437359302165509 1.618818465061591 
2.862467728396326 -0.7185048680003923 -3.750632606715789 -2.392727106582781 -0.3358517062773972 -0.05572553371603325 
-0.7197715802406552 -0.8260410597659635 -0.7429657202466870 -1.425238643037585 2.870735486892076 0.4981385021895024 
1.260899076470751 -2.335980073726293 0.5692878300100851 2.343579012197515 0.3502354094783875 -1.586518820424352 
-1.135757092208877 5.587597866729747 -2.683647359652835 -2.925267257437239 1.862331755684290 0.5648816435903001 
0.7388997788838388 -3.759539067173915 -1.598839883923350 3.375991506741049 -3.725662065780204 2.400872454830271 
2.521972592007776 -4.342618415341704 -3.677627751096976 -1.072961858771345 -1.874165856188546 -8.152462445992382 
1.820875313082916 1.466165316707683 -3.975870177973146 -3.921195256937975 -2.294560874097873 1.890610759733358 
1.027231348561174 1.348348601543947 -1.403947848012171 -0.6546975702154451 -0.2250358765219247 -2.915178210875470 
0.6966718169882105 1.866950020913184 -1.156879702104616 -3.678935998057303 0.5287216463575891 -0.1106181431271450 
-3.167115991310277 -0.1676560433805315 -4.861424522590761 1.186059729835534 -0.5195835671979201 3.606327526275886 
0.1110765689473443 -0.6027667353544817 -2.611774097217383 0.4969687392809681 -2.765349421925710 1.342063000910365 
-1.575362880690109 -0.5406350064617269 3.526149926979402 1.461118402909023 -1.569839658235230 1.245044194100685 
4.011693461376650 -2.726141784997759 -0.1142367781540284 -0.9024960562381266 1.033688771635291 2.414112844425540 
-0.03831516689273110 3.761510835383388 -3.924431982218948 -0.5859264258041681 0.4911966917903784 0.7815650003976701 
-2.140565163097671 3.318456195972993 0.1349575193385900 2.471101209537871 -0.5689287285675866 2.001398897629142 
1.457141828696709 -1.955052905865772 0.9247771284256270 -0.7626724701862183 -0.5200462637212538 1.281901073219221 
-0.3809147943457154 -2.193247503159778 4.905001803418833 0.9267779628939058 -0.1184868088470283 -1.930908505875575 
-1.246008616027766 -1.313467386618955 0.2300264102546571 2.206536531407211 1.703401077845621 -4.116887851728097 
5.763198210154531 -5.833301947976735 -6.643019924352501 -6.487672809145594 -6.298086785778422 -7.289544812906347 
-0.9361881084118215 -4.157943300560993 -5.963244391707463 3.092351537280977 0.3407849251647547 0.3693567666358744 
-0.3156370221350714 1.359633894980472 -1.727621895059759 0.2555727705924428 -0.05630220651138763 1.150011256784263 
3.343479079709534 -0.6844491034402703 -2.452462986876205 -2.829391531555699 -1.158339297346676 -3.143230527963671 
-1.819279682125178 -0.1266357410770694 -1.300938093102983 1.324411539527592 1.902791642819947 -6.750756049517374 
0.7567749276029899 0.8016615672347829 -1.183256524260900 -2.363092614755382 3.110193320117640 -2.910384969977408 
-0.9125382418662034 1.835805246075296 -4.023430609202912 1.578915922047954 -0.7361493347440866 -4.228361730703529 
-0.3412249307922227 -0.6021187011563641 -1.893954298963245 0.1171821303916721 -0.8881851262574709 0 
0.6639466202845918 1.362970462289298 0.1912980307073947 -2.591462218657170 1.696079342961475 -2.767587853560053 
7.259487351159907 -4.006776101918970 -5.564026078165257 -4.931206176383829 -3.508840640266480 -10.94080176894723 
-1.023801063557148 1.141176558545628 -1.217795158120774 -2.563679543693578 -1.686793055366270 0.8378999394748171 
1.327810563745260 -1.392505649234825 -1.860892675226074 -2.022564223852177 3.247705614756153 -2.478702896702775 
0.05431159441333505 1.526115740345741 -1.846544251235368 0.07500233483745075 0.1001573404196035 1.830019147952701 
-0.06678616340886898 0.3738996179146504 -0.6597225526196113 1.384534983734689 2.716479222493720 -2.281518053055512 
-0.4426582010456756 -1.777946747147833 -1.633219919057398 -0.2141844018428404 -1.325356174598691 -4.014063776920757 
-0.4513254173190569 -0.3815127596025493 -3.021732140937318 -0.4466255749000359 1.756292009022868 0.9459444257191960 
-3.359059040854490 2.265718049562492 1.444771990929812 0.1906596992046741 1.858845743656397 4.139572293753355 
-0.5881553075075220 3.168497199433357 -3.005404168490529 0.9655941729870247 -4.507062999133472 -4.870812718798844 
1.006731680698703 2.696132326741128 -2.074194040841360 -1.429756913876463 -1.998110781798215 0.7785627255731294 
-3.049206850318672 -1.585159586000518 5.173745526897699 -2.239121870833372 2.519350426906907 3.257726302038017 
-2.361853783246483 -0.2011476753991237 5.577729077726420 6.787890153346571 2.387861906626949 4.002087835423562 
-0.5901380545284785 -0.4021910617531037 0.9101775142116293 0.3094531851878162 -0.1930840724420099 -1.659679333828598 
1.096602133261223 -0.4307407683770325 -2.648520743475525 -0.7625408597416399 2.385418187085265 1.136372823189876 
-2.924959336587070 -3.594840996446617 0.1289865201433906 -1.841750473116851 1.369413730749431 -2.859377312261421 
1.176155858117591 -3.390757366502026 -4.230495148629859 -0.3439910063712024 -0.4131333173649902 1.206690200605909 
5.257575375072349 -5.442399736210189 -1.396686218401098 -2.523410472732727 1.168702121812943 -5.145499408348296 
1.091254471119509 -3.453984926574542 4.324857495040117 -5.943986694884602 1.430339591492174 3.578775637201905 
-0.1057198457683178 -1.921170973264943 1.206117308130301 -0.3892667316878141 0.3750352211864527 -0.4143652491130174 
0.5499917735602344 -0.5731193398654889 0.06116242033518043 -2.560905093769069 -2.416523993590386 0.4372383704054247 
-0.9226657530225048 2.080920468875283 -2.007805502178619 1.067862861273337 1.877550028431805 -2.682870934369827 
5.021243103636892 -5.656977204333654 -3.859221565450950 -5.106662037868929 -5.602585074438479 -5.989051291359282 
-2.118009572519985 0.9652829464594223 -1.549923558151882 0.5746242044411337 -2.026916309189994 -0.7801020011716852 
3.127082807163046 -0.7644980891532481 -5.003870539263858 -0.5194776081023006 -0.7374646211860343 1.736433198077694 
0.3576122392900461 0.1762904903720425 1.892708745004645 -2.008375575700480 -1.061338506792458 -0.5719988847655659 
-0.7085710994113599 -2.690411887646669 1.570940158202374 3.688032883093373 0.2290154558548515 -0.7184446331716233 
-2.766393642949964 1.190108012631702 1.928942091624246 2.002307883393437 -1.410296133186192 1.207372166113168 
1.086905971777207 -0.03644202106780044 5.009247902724959 -1.511356616696164 2.189948266377247 -2.751820031709173 
-0.3688486120883635 -0.4117967707095956 -3.065857606470351 2.342168275850519 -2.998492195509557 -2.148762494517267 
0.5240136813652181 1.118694966362367 0.2552541182764040 -2.742406138315666 -0.02711990149879834 3.448621355869169 
4.324583632730194 -2.027384586401711 -2.604750504939435 -4.067063952284920 -3.394934366866610 -3.734656100738996 
-1.838758345816781 2.200945301454990 1.131243706676801 -1.136026303238296 -1.868081946391588 2.033303902064109 
0.9673382462969538 -0.4205426497697470 0.9997213013969966 -1.033585074744341 0.3985845126443730 4.847592356510532 
3.136589076085700 -3.829335340567147 0.8556818247794210 -2.799715440031253 -4.021446825763462 3.232251063912428 
0.08662160639566122 1.790797774878142 2.504789334671905 0.7879234350491029 -0.6109976480524228 -1.875641788240986 
-1.350344838074007 1.733249120491491 0.6085629257177303 2.128457919538071 -0.3565737258004496 -1.216422592803468 
-0.2897436393303121 -1.935673927924460 -1.269608819502702 1.253049761172991 0.5977837871752520 -1.043018649505215 
1.667776389344604 0.3442599515400983 2.259939054940390 -2.554845557789356 -0.2482302592173928 1.807294088256714 
1.431716401990947 -2.209870772049750 4.381526732971417 -3.079133610587993 -1.721171408053118 1.242083158120107 
-0.7365646624636090 -2.254473003924922 2.063595690952509 1.032827063016495 -0.5979658134178811 0.8840004236258586 
0.6049606207457396 0.3812644939356495 -0.2565342002914752 -1.032865410319768 -0.6296323598211692 -1.276041472423474 
-2.818131714326440 2.538375496512541 -2.247044207283163 4.391443869978366 3.810917048960644 -2.246114393893628 
0.8346137618879513 -2.063010453127843 2.780808863227643 -0.5286542287196810 -0.8859374612694468 -1.420329503517402 
-0.7871655724982338 1.248585098534243 -0.05089387331636565 0.8908777160242887 -1.908431210324076 -0.8461725762816926 
-0.2921664827940289 2.511553984995332 -1.513168249111224 -0.4933979617106135 0.5384779610082261 -0.5486167705338915 
2.397798333702934 -0.3428030041460245 -13.07246093410782 -3.727886574963195 -0.6552393302503070 -1.221585752505181 
-0.9997445916234288 3.352619822546930 0.5516399597180645 -3.248495634005981 5.669530028807865 0.07839397165775710 
-3.762364726179623 -1.262210097753676 3.404332049855058 -0.9467709319717610 0.2326867200949374 -0.1741432879992251 
0.6136594018729994 -0.2456844247851501 3.022600306203504 -1.473567958726895 -1.539567340570647 1.398259722172248 
-1.789234778494963 1.450009340948434 -1.139680877625084 0.5711058336265596 -0.9683808899296298 2.501152210326390 
2.298562823954789 1.308618879362180 2.580067994451646 -1.720690479227724 0.4483803211398779 0.02425762734459491 
-0.2714016201662768 1.709262247689457 -12.05367026562281 0.7601743032251812 0.3971523870359126 5.430937974696318 
0.3405151087622873 -0.9375710858146312 1.357492616511145 2.326511768507028 0.7947025489400851 2.350708915558042 
-3.645850801330664 2.712906864886711 -1.421773504667832 -3.161999774797678 -0.1404393630743627 2.400460033163311 
-0.8660209215590575 0.9401276442977976 4.145132567539617 -1.154573543787649 -5.227649048530547 -1.273416661812074 
-0.07418351387837667 0.5116250834168804 -1.683707553433453 0.2368216443529522 3.200050304432105 -2.752471068497268 
0.8888554547007781 -2.512626298991710 -0.4475518616781234 -1.230283213841560 -0.6837985630351110 3.290379402792478 
0.9353536315340856 3.232581882184923 0.007507166582183297 -1.221697991941706 -1.276250537279902 -0.7768814243313579 
1.313503252766381 -0.3001962938786105 2.801205716700353 -1.128701225215392 -0.5791488841578460 -1.772388850644696 
-0.6744473734505770 1.544460372570197 1.223439467856966 -0.3073274751344206 -0.2047812516353052 -3.716805859465312 
3.384256598712407 -3.102967324981271 -5.988112380179437 -1.719076527820856 -4.070587313426787 -3.737210549734300 
2.450626723755523 -1.182725450789077 0.8874535820603572 0.005686470745654038 -3.102607805908054 -1.215487819993746 
-2.335026836949615 -1.285859664658890 0.6555062733194987 2.372577825531269 0.4757759229299834 -0.8278387929267736 
3.847280523343553 -2.837160643179822 -0.1994637967316065 -6.005198419547140 -2.595403339655970 -1.161091518212126 
7.036514371671602 -1.134950361484001 -1.649133661472760 -0.2953544207249204 1.303118167600657 -1.297396717636890 
-5.769913224068754 0.4030997340588935 0.8634574701944082 3.285394196686192 2.334752252841710 0.7325253968874452 
-3.815672293736768 -1.708018385014662 0.3551543098490719 1.538130878449600 1.045764834125633 -1.321412137815331 
11.16370400172751 -0.5798689593454041 3.781073831261038 1.417498679538324 0.3287536949396896 1.055340989090587 
4.681786592968298 -0.7245914981881435 -0.7894991610012515 -2.503240589394383 -4.062864998468365 -3.693382589433669 
0.2911958136322929 1.483408782398112 0.4909525755531861 -3.128472096919585 0.01393393296506496 2.297244532158442 
-0.2679068961375544 0.6118137910147933 -3.932445932993486 2.712620189153397 -0.5931797407264270 -0.6620843092179003 
1.178605193016914 1.454782360238786 -2.657102968391510 -1.011587642786296 -1.800769730257684 -5.046338011794089 
1.610546275553992 0.4897643418914595 -5.274376613576799 -1.723319123260739 2.653777661034297 -3.363272242711010 
0.8543503443420610 -0.9770422866588061 -1.073376894286348 2.280866338978596 -0.1736967197476300 -2.760147222097041 
2.329372144318423 -1.038939515391269 -1.002828154785986 -1.386295970042796 0.6426785916928041 2.787018236752820 
1.399760362636911 1.108060823123430 -2.692403053376407 -0.9480707046589583 -0.6562927635599817 -1.840040270322387 
0.04291435311905498 2.380518729311631 -2.550344590131677 -1.696401514877339 -3.661347471654087 -2.284289530726113 
-2.424956911698205 -2.008959650968509 1.802245950662700 0.8036092910938208 -1.706402027432638 -1.830051897578237 
-0.7008042256646425 2.026398172594480 -0.4047555678134147 -1.741566862311522 -0.1953535319392933 -2.558228003720525 
0.5248773856355105 3.466858058041914 -2.744771470284702 -1.644434003879399 1.754553748831194 -2.480016967408970 
-0.3115691488578011 0.4868056806190577 0.4297742538849553 -0.1180798810423807 -0.5142702077164927 0.8001862734030758 
-0.09806328554099375 1.926155352409213 -3.595351193920376 -2.435862798423633 -0.9407168481336394 -1.198559471964281 
1.390059707583496 -2.464702020041651 -4.817471845858503 -1.634060641124463 0.4081851959969266 -5.496746637345003 
0.9392959842534243 -2.278830591601438 -1.183072638961416 -1.630137794110728 -1.221273123132384 5.602789478485017 
-0.3259351987519600 2.604809730162130 -2.258728529030405 -2.765711300914216 -0.1815279677468283 -0.5193390270589080 
0.6078520992499988 -2.412266862678903 -1.857262583210451 -1.170250694058387 -2.319948440434638 0.2423635926008405 
0.8865868938149986 0.05234067156151750 -7.388839495178559 -1.085271836246962 -0.4161618567782625 0.4897071023694687 
-0.3210614691469805 -3.287341091260092 2.150796614027089 -1.365824085098425 -1.201574463685777 1.685850985298137 
-1.553965528690930 0.3968024042881420 2.690564011505842 -1.048514623219282 -3.810715519236745 -0.9263032623546974 
1.047850514479159 -1.990309587449025 -2.236508775059796 1.172688234131010 1.165527847930048 -1.066197375008173 
-0.8535236405578351 -0.9006464290501796 0.8290768124416681 -0.09346350804699942 -0.4266229351728711 -0.7774774536655747 
-0.5099789141297460 -2.297396125561344 -5.775378843747294 -2.743615816319681 -2.111631867320556 1.447120530769787 
-1.343737989041473 1.084968563355806 0.4005809682914168 -2.243588068397894 0.008874643725949372 2.122865871807295 
0.01320708707402744 -0.5453397829849272 -1.883127104455913 -0.4225798134347246 -0.1189570162970556 0.9364752388556928 
0.4624206215816158 -2.259360875988607 0.4911170644549253 0.4122678851765214 -0.7974019977119606 1.191465905380867 
-0.5204449329582984 -0.4008846262070654 1.270350439408670 0.05947155381250117 1.301674181069563 0 
-0.4315407789989489 -0.5554936742879776 -3.088672808694104 -0.1292861927980645 0.9706488833649658 -8.996018685594650 
-2.620236345559162 -0.9853923847538300 -0.9524984259248116 1.040526262318360 -2.759355149911911 -0.5217902310102872 
4.036298488203942 1.064093490959472 -4.009702723810878 -1.452493997564827 0.8146793022252394 -6.742714141244634 
12.98094205042649 -5.018211531074869 -7.967306349588597 2.646951631366147 -7.118384962472760 -13.16995036762778 
3.682303754324388 -2.679797442703622 0.7371129850707185 -3.657926065588259 3.583624758201487 -1.958554160617098 
-0.5478715556594529 -1.892148215043328 0.09020607937720085 -1.898822244481640 -1.956767196349563 2.261115813629760 
-2.708548974252292 -4.171212720068998 -4.409166811854406 3.912593800663146 -3.350463436845640 2.263801280825420 
-0.6478735136848263 -1.407009370655945 -8.453134419556307 1.740728984549080 -1.169830357426887 1.282681540083714 
0.08730040220977525 -0.9627911017365307 -1.487511186597437 -2.346726483754498 0.9568421693999623 0.4543955498743097 
0.7206116206953694 0.4355163581169715 2.106445060333872 -1.071030694452686 -3.340836032218839 1.424640816200824 
1.089759312980237 -1.189706103118255 0.07685641565505962 -4.094520395018389 0.8629859263727567 -0.05504045374279751 
2.567611131638650 -4.902275961067629 -1.718710918155235 -3.911150946510077 -1.395226612248547 -4.048779629098671 
0.5212904744314846 -0.8055947552973723 2.627801297242096 2.239787270309630 1.960749870131104 -1.446352065675815 
-1.820282759337897 0.3024468255769320 -0.2216065102813538 -0.3191984435028645 0.5958783479575946 2.084441314318045 
1.198374201407180 1.213152233465121 0.5724376625323486 -1.773561476546979 -4.403621440589869 -3.026512738928460 
2.181404511484340 -2.734893746200085 2.687323213320629 -1.105671559081801 0.03308196877090697 0.6232384479698753 
0.2137663987391686 -1.965208874065623 -1.280416519554706 1.038764529765738 -3.312195937152858 1.677910542412660 
-2.556854093297419 0.8811355082500935 2.175156749830130 2.231286806863239 -2.928629455475085 1.696249817832550 
1.019531219630259 -1.337974100890623 -3.232919849079603 -3.014179516945830 -2.772007838034150 2.113721933597544 
-0.9103289009017175 1.849955798199268 -1.250078403406932 -0.4204500701046606 -0.5166219012068121 2.387641193238336 
0.5557393256787677 0.7825677987028760 -3.033436109924924 -1.596730362231016 -2.434747048944058 0.9106908468846188 
2.439622631062982 -0.4802750130431575 -5.031972629922707 -1.162773930477610 0.1578829986242696 -2.841084034811760 
-0.4465487147708368 1.073536708223154 -1.632500906960640 -0.4697228422894162 0.4490003472694211 -1.226605303767664 
0.6301965329018866 -3.404827100486901 -1.238019388799006 2.575744392417998 -1.874674904996346 -0.1361898107409686 
-1.283574388703270 -3.044981800805251 1.714307413447449 -0.2060901780192357 -5.283785633092779 0.1182990959348600 
1.149784228408921 -1.806162157070150 -0.9731277823154227 -4.189825341789590 0.9451899473988974 0.5999831834646656 
0.3857398709089177 0.9852715352751045 -1.227283297901400 -2.382972586019895 -1.335317078227073 -0.7034669131150415 
-2.150779277633138 1.494147267274648 0.07736041521106926 -3.942914436010400 0.7166069030359845 0.9907808383161261 
-0.6081443756843250 0.4431974047365599 0.2775016120016390 -1.547000418503748 2.220112563130010 -0.8342847034544201 
-0.3030174715531240 2.386132576431055 1.315190124915082 -1.940478476450924 -1.590790603703628 -0.1901144685523204 
-0.7184630739735922 1.895819008862121 -1.762686815886982 -2.115730070334521 -4.021181619164163 -0.6430727102191764 
-1.055372614035648 0.2089833301644968 -1.077235868255243 -1.787530411470034 0.6339723531292383 3.615589217086697 
1.178766830092775 -3.101223264916742 -5.206700928884234 -2.313679245496222 -4.081703053102414 0.8606022970308844 
-0.5560695318748821 -0.1862792290311991 0.8502185143790832 1.225873248052036 0.4751275239549051 -2.589189459437606 
2.542022845568888 -0.1275906877606779 5.179268671353092 -3.233240059097570 -1.235808834934858 -1.091868419324144 
-1.965566401011285 0.5569146619931797 4.430043130996191 2.979564436381411 0.5670547138208001 -0.1942831918051211 
1.967003711766056 0.7469596692468413 -0.1876409512529706 0.4920378651403881 3.375681909215620 -2.461758948090253 
0.4338547666052803 -0.01006627785365050 -0.1411455008486178 -0.04622589673352689 -3.410773178506499 -0.04118478185426704 
0.6769381357373256 -0.1335295468210704 1.843601794692848 -0.3262668664735416 0.3537937953746326 -2.165750470729083 
-0.8671094712383245 0.4987074180147759 -1.600264974304793 5.625165821353031 -0.7899612122073645 -1.869785854055982 
-1.704221880303628 0.4106032523027141 -1.080920851268933 0.2707394885450273 -0.7805682077969378 -0.4722891039519057 
-0.1861890441108511 -1.976463661862091 1.231540596367809 3.227637029748166 -0.4945063835763600 -0.2620738291237167 
0.4055104996247404 0.06507825026128580 2.887545233756909 -0.1997395185325890 -5.159422967277496 -0.4333501587172712 
0.7386241524613784 1.303491041279728 -2.120261334464790 -0.7296537507044869 0.06068137640336732 -2.849286760709164 
0.4899066490342280 0.3777586827457591 1.206269174795794 -1.986587368291599 -0.4583253225593384 -1.145967725247556 
0.4378843419597970 -0.8450813593751335 -0.7622940715912438 -0.005670520399266287 1.143381973612058 2.966449306789877 
-0.8940549978862805 1.340031193403353 -3.532314996873553 -0.8871969070022855 -0.06091066738254945 -3.027595108360986 
0.3996514731457038 -1.038066954539515 0.5382898955527661 -0.6482261708737456 -2.468757120836763 0.8783114512201586 
1.429979540320790 -3.023418525525272 1.484316738278872 -1.588434266138877 -2.236809436981883 1.428491526760819 
-1.415738202259177 0.4027754076589524 1.078549296445694 -1.008508585873996 -0.1495861286685917 2.516314090411432 
1.516865988982191 -0.6419875324532152 -0.9219469299913808 0.08375696892136893 -2.604663683232132 -5.906962085994584 
-3.285695641920724 4.666337878944724 -2.683987614267156 -2.387377917548765 -0.8160247514708007 -1.876719070558190 
3.473096981645581 -3.541097931173127 -8.075450886629653 -3.259386608256263 -3.636262795705028 -4.202074348446534 
2.197927738597485 -1.034236524267359 1.991239014492461 -1.776861090414150 -0.2783307044361991 -1.973072067009676 
-0.01101261534468023 -0.4825833605365123 1.740329413748761 -4.213010787761886 0.5574120752794937 1.094782883074667 
4.786433394216924 -2.928910901684168 -1.224234503902303 -1.868379063994085 -2.814095245127797 -0.9644864108914115 
-0.8604162525233133 0.4236077140475480 0.8588424079536267 -1.328699917424831 0.2685817464741332 -2.902020989689888 
0.2677966830215285 -2.334164205561758 -5.445798620506379 -0.08854898182408652 -1.430022222711124 0.5868786417352769 
0.6407043187856176 1.232687177433173 -2.219159370540313 -0.9250095790975645 3.129692297444560 4.714094943157985 
-0.7387051781480430 0.8847044835713515 -0.8456813704089744 2.585116028146924 0.1959207257893856 1.850095421716003 
-1.379526988481777 -0.9763737570843247 -2.485705160125639 -2.184046387361292 2.061088579681225 -5.473134182181757 
-0.2700186493592448 -0.8011370572302725 0.8201871563971809 -0.8106581752813766 -0.8833733634766321 -0.6093026374343246 
-0.6435211743572207 1.257986590769646 -2.001785813253783 -2.360899293283735 -2.446238000412895 1.359739970054471 
0.07870516964239013 0.08917375889885247 -0.7701799688870364 1.574298735168415 -0.5023299055444407 -2.411958163962112 
-0.4606324823058609 -3.390941198129486 0.4664983461144661 0.8665547375249496 1.846358408246733 0.7159210625044298 
-0.9870822113650959 -1.845087018239240 -0.5185738308838543 1.291028852914745 -0.2267755941135493 0.1813979634229496 
-3.055693410647191 -1.511873030922960 0.5371991371604791 -0.3174283534443001 -0.5304488809471941 -1.857378230425211 
0.07376539128029687 1.231607731608699 1.057752272963900 -0.1257387594808512 -1.369851527318816 1.844168565223741 
-0.3178724843140894 -0.4800956016311801 -1.373446092932608 0.2714288660060359 2.482704676476483 3.739624298993153 
0.5256511314483849 0.08426992673877291 -1.115058763715386 -1.544950764105393 2.682912443366288 3.422770964628112 
1.890676017537538 -1.031234207964824 -3.054746278730160 -1.019892935426556 -1.081761406014662 -1.499612673143539 
-0.06721481860156114 3.258039410748927 -2.998485187116721 1.716550392367910 -1.074943498840046 -0.1412155665876714 
2.075096439974256 -1.524459842460928 1.369213977995887 -0.09095019197330995 -0.6736941583409071 -1.631433052778377 
-0.2834274249642451 -0.9690270459832971 -3.083742941874499 0.5280583812635887 4.028678807656363 2.454153864849543 
0.5086319647522801 -1.922986285818914 -1.035048820911823 -3.659229622349978 2.567856914855015 2.491578939197272 
1.151837229286844 -1.039326350043024 -0.8742803134902062 0.9547437144321166 -1.475448553208108 -0.6567936959467129 
-1.354061921615617 -0.2708258162407881 2.546414901310307 0.8513004202200045 -3.871053818014234 -2.067872865435640 
-0.9359085655259407 1.263894502688213 -0.7076402484008004 -0.4793210110536018 -0.9987481660239024 -0.06574036503096120 
1.272646374093114 -1.137587453964455 -1.076210420999191 -0.7419996437468881 1.397643987737464 -0.8392811209445795 
-3.001962481772556 -3.337505165272138 -1.920183720659695 -1.749448939905894 -2.505201846405759 5.565264409717783 
-0.4217395646880805 0.8797039878555141 5.056954099478098 0.7615320844416983 1.990226445834842 -1.054968539981016 
1.932151375913323 -0.6333744922824792 -9.591400332747103 -3.440575665791200 -7.152825450552818 -1.996926052225396 
-1.249577067012845 -0.7757932557897621 -2.922238909500982 1.745136137104802 -1.585770717262158 -0.7063006198268276 
-1.265989269382392 1.082336375606674 3.038085504688926 -1.078448988874112 3.739154860767329 1.260516841048290 
0.7428480738664015 -1.081858680218450 2.755729188046768 -2.031818135240315 -0.2305771462346443 2.709256012669926 
3.245069980158063 -0.8337546746633150 -5.017849146003026 -3.413606577896643 -0.1539129691653296 -1.717620972194113 
-1.463063414681719 0.6009686546751779 1.607800268548273 1.313973716708986 -1.772328669415028 -1.015691169380627 
-1.857313927952418 1.056169679632519 -4.678178479017184 3.219595433300181 0.2612998648913725 2.296009920060332 
-0.1902326087010862 -0.3948839238852672 0.3536266772131094 1.023492891130373 0.9797539338935635 0.07420227530659665 
3.855160010937017 -1.245738683925344 -3.888358527970997 -2.601654339342089 -2.843740399723982 -10.50028398371400 
0.3194040524846890 1.187770610255807 -0.9599784743150123 -0.9807947610609103 0.3564996740446846 0.05557826751269899 
1.588448314872422 -3.073381068995204 -5.068461357000171 -1.040356922080639 -4.524881481411821 -4.789358953957306 
-1.538275337604271 0.3650333157292815 0.9753208553628588 -1.369760250010076 0.5599028177945954 1.160488637235549 
0.8520439185625818 -2.136357172066957 -1.347322044462324 0.2055426179780100 1.537065762595373 -9.787301034830387e-05 
-2.637141728139123 -0.3887464427472728 1.234890726810159 1.901792169631382 1.926644590107746 0.3890963882631672 
2.139345880682805 -1.699557639149532 -0.2237931241252220 0.3524732342225613 -1.925067679628009 -10.52387070464053 
2.765653017742875 -7.327142313637602 -7.997941338998818 -3.052871046116291 -3.461548130248005 -3.311304226317170 
0.2721699050861827 -13.67926141025150 -0.4306679367011119 2.064599053967513 -0.1979970706563241 2.175912245238348 
-5.694331376417788 5.690039659659199 -3.677786463355387 3.186576976356024 0.7361820498236040 -15.30606676729765 
3.245416616278471 -1.801545794373374 -5.121880735250953 2.480509228279560 -1.732806522390012 -1.129110939530305 
-0.3129205879467952 -1.776402191378397 -0.02498929388437321 -1.135946231400973 -1.976864603628801 0.4445738024347117 
-1.388330824703205 0.1282417759050180 0.2883751990142024 -1.097596492812657 -5.198649667746176 0.3413915781429338 
0.4252888541253236 0.8498119646089597 -0.5169219355736238 0.4180221701909839 -0.08367019358375871 -0.7163328600722048 
2.449341965369203 -4.485316238415969 -6.270694585612790 -2.790038230571630 -0.9813439844887166 -4.211437876236814 
2.090438879291961 -2.033160390368041 -2.523722342559954 -1.597496305734484 -1.729795097316921 -7.390602426685222 
0.04346847072232407 0.7376998232389881 -1.255838405255015 2.081896512966261 -1.639248043536015 -3.308092509922836 
2.017947856166930 -4.288363970225634 -2.817521420138088 -0.07976376179853618 1.582853865961203 0.4487949275269897 
0.6743402279599351 0.4170160520667264 0.8239422894617272 -1.039073888312458 1.428711063608399 -2.659625717484782 
-0.01169292425768659 2.953763122843261 1.457254071308665 -0.05378220239605253 -3.901576428421561 5.517112384169058 
-0.7518395286337030 -0.7166176909303746 1.648975796939496 -0.7075122106837335 0.1981246441102759 1.209937748992553 
-1.391422198334911 -2.421713909703569 1.883488089544716 -0.8023582833119465 1.523513949757839 2.381589544475329 
-7.146107791309042 8.159772048206428 -9.000803648049470 -0.7774584388419261 -3.607725045969523 -15.56035013407664 
-5.264486980326789 1.729960872851054 -3.782899988299782 -3.677573594371726 -0.4909253121483648 -2.009764474529667 
0.3968705686194362 0.3618413713765739 0.2723743877014558 0.6247907663431461 1.479277198367645 0.2713371325155465 
0.1188436708310102 -1.105066670544205 -0.3985497855272710 0.4760884910178067 -1.868835653530112 -1.270279820977968 
-0.2780686207104303 1.719026003688954 0.3485536329742447 -1.752383944627033 0.9894446056883875 -1.303334326390153 
-4.112362955603522 0.7575721605799066 -5.386940845679462 7.280728444780268 -0.5789728924163267 0.8106088165998073 
3.662830509635146 0.8702993101514628 -0.8364880963259073 -2.183601317975409 0.3031791761801003 -2.100360812492144 
-0.5526607584036224 1.195029011260822 0.2117139713019087 -0.4426299534409092 -3.248056908282031 3.365019333216922 
0.01139749556513705 -1.905332172594900 4.244017179532189 1.906905683699531 -1.652069153836532 -1.311658949150561 
-0.5939144823577034 -2.802503028641342 -5.256896909251112 -1.754953543444658 -2.746826276472649 2.751783861266610 
-0.5908873171126976 -1.729041190893620 2.483891489623682 0.1968052435140331 1.232040304491066 2.326171796810270 
-0.4306163133858905 -1.646060990431926 -2.433591050389429 0.9349134822702645 -0.2967089736530883 0 
-0.7422854942499235 -0.6815468685107844 1.157132917563414 -2.024477420795261 -2.471380572411422 1.100042641715921 
-1.180561729876927 -1.079518909613230 1.514138316190576 -2.911283881072797 0.5831466559669949 2.071017140682650 
-0.9049475256024725 0.7110322750755075 -12.48185530600289 -3.349428330368247 -1.558842033201915 5.009877853987228 
1.958524949738168 -0.1028010440120885 -11.97047163322257 -4.176168808847806 -3.563980612833270 -2.105093028075613 
3.642871965325922 -2.892657037786397 -1.872062341044766 -0.7432811075495726 -8.686171160952870 0.1176904009052554 
3.252559721597714 -0.7961756449542009 -0.2048970471057453 -2.268502834376417 -2.724879265689343 -0.2480259163199313 
-0.07466406342196569 5.145387868003421 -11.90927906353313 -2.695775907041340 -3.970495516055824 -10.91076615446456 
1.557044916645586 -0.5795185268008256 0.8451637151656699 -1.585294523084572 -0.8884603970788411 -3.378100791777565 
0.2235846528166432 1.039628535098716 0.1019564320775176 -2.337363716845373 0.6022207478633934 2.695372082112735 
4.073960417034224 -0.9993520665665705 -5.770001692464831 -1.846345065934870 -2.220326713205942 -7.151276814965419 
-0.7585263538194611 0.7517677073428732 1.011843356381071 0.08404434576533676 2.326039988872319 1.521196620860012 
0.8095287642740088 -2.302482571264770 -0.6823248782483224 -0.2509038032811382 1.593291108076428 5.046514168871163 
-1.678699800960499 -2.677786238388026 -7.755881975473264 2.060318288242105 -5.695329661762696 -6.073954829975568 
-2.900919326525600 -4.383710361114239 -5.255919433308215 5.137226227524442 0.9443674574483734 7.204460222978817 
-1.146240458536100 -2.216887231052266 0.1465920802392698 -3.403623684904092 -3.531652020715711 1.919316214777008 
-2.628391886990205 -3.878540219070791 3.913449464074993 4.498282692754254 -0.1734531323886654 -3.081607704814847 
1.484944242011227 -2.270776853006741 -3.168780169249719 -0.8290886035145634 1.870234648470688 -0.04112321978601230 
2.920146489722213 -7.060341929539796 7.363489174640572 -8.375584047472184 4.248477336020215 -7.023480321974594 
-2.070885069077206 0.5109467667713433 -1.034762735076198 -0.7703857073693317 -0.2323292263787419 3.507012217722913 
4.360270828945806 -3.402382870163569 -0.2556449796784880 0.4063869465199386 0.6231739273697614 -3.072676401220879 
1.807225401709168 0.07623673414206011 -2.043651810576777 0.8151756542064061 1.084300042285761 -1.260879691899406 
-0.2932410424023549 -0.01755231778393048 0.3111726496781180 0.5574167926239791 -2.059271043568489 -1.849426983441987 
2.527643519102331 -1.015336016659699 -2.943069032240050 0.8936155281140448 1.646126832373048 -3.680177558627126 
1.898547980681373 -1.284477555500258 1.703686742794841 -0.7923460839558544 -0.4730458156711656 1.277769772636997 
1.591414920556265 -1.668519969770001 -1.877246378355661 1.970937598255182 3.138026975711699 -3.728450206315131 
-1.023027602437284 -1.254071682163207 -1.162133444488682 0.3128312314630274 -0.1641252503939458 4.104346479831514 
6.079061967327196 -5.463760287432350 -4.458142930291368 -0.5725052942781044 -2.700133446877284 -6.429905858536732 
1.796960834435716 0.3559067714130211 -1.701947403267393 0.02515374775190469 -2.295735452534202 -1.919405878922906 
1.029073234452399 -2.058023493188257 -1.526156870512670 -0.7839589411197776 1.480661762091606 0.05088341975260302 
-1.037689804162511 -2.835073429850898 0.3696506030352986 -0.2079119664014794 -1.959060750690770 -6.778616762269048 
2.527573073928867 -1.401940505820935 0.2556408071428472 -2.442014943334445 -1.721548896458051 -2.426949655893308 
0.4211245558867013 2.539861490513828 -0.8348609189494490 -3.260451316527884 2.098424734570767 1.000682603041650 
-0.6484585707733470 -3.090030134410093 0.7342222524225425 0.4139296670596765 0.3097772186189861 1.913689098355580 
0.7354576614645224 2.207291977178684 2.252590532047466 -4.496207459418011 -2.187977621013054 0.5500372745369150 
0.3517351535030415 -0.3624483306935209 -1.825050953358404 1.984482542272520 2.510268831170931 1.009375029886179 
-2.380068641672430 -2.083317134068472 -4.244077505609684 -1.630829163890862 -1.502746073551218 3.169442945983097 
0.3101837274224766 -0.3029965956598145 2.317252285022784 1.285604515189029 -3.072969611619700 -0.06303240552137930 
-0.2308404470585550 0.1986353110907981 -0.3722885188017685 -1.174916765766219 -3.663708254890905 1.467272559802159 
5.503772638705751 -4.181733069255397 -2.593921702262300 -3.290122191787905 -1.453719787918983 -5.103486303867789 
-0.2163375339369529 -3.184930284715530 7.723954159905942 -2.027253234622471 -6.818479714385424 -2.157538894440424 
-1.389723619632203 3.626683148005310 1.366784044950606 -0.1704716913125585 -0.5892169730280876 -1.199953437393560 
2.290933184236630 -0.9590872422069657 2.685633118596577 -2.125517015216279 -0.6135729424241516 -2.376428893397985 
-2.032515043022833 -4.413178811986191 0.8949468159371118 -0.1723575440741256 0 1.361080714571288 
-2.032168209431244 -1.145539999335467 4.330969862134368 -2.385094662013657 1.997586051002117 -3.688930197907931 
-0.3692531235369531 0.4403961156323150 2.524763714279374 -1.592639735168012 -0.3499348541803752 0.3997945265768745 
-0.7854119905441633 0.8512841944913528 -0.4641461411309109 1.041470555933413 3.193054270379751 1.364514399952987 
-2.936850681210093 0.6696803573838653 1.626734705491276 -0.4857790879951949 -0.2382780821200464 0.7560179727553755 
1.252348842382816 -2.451481627125071 3.665668685900285 -1.202323270872474 -0.7905903507323999 -0.5417873974515591 
6.835028261705557 -4.259221198592254 -4.566920717213472 -4.361331893275061 -3.727968809570916 -6.949014057319264 
10.39573355165445 -9.873858252336337 -12.99054743011072 -9.138370561122864 -8.204166738644886 -8.617065900681018 
5.393754185066693 -4.666859349537440 -5.172529012983544 -3.607951474506623 -4.994947655573482 -2.922540514340409 
5.976506749824159 -3.626614373699363 -1.113274487652726 -3.186091341444249 -3.982537120880059 -7.379956174729200 
7.524288654070253 -7.580674364249185 -9.595889011789870 -6.180633513255842 -5.330909476758307 -6.081536518034696 
-0.3365360110827308 2.419147752992166 -0.1168696297054215 -0.3536390032091503 0.07528656024562663 -1.157179526116991 
-0.9818273920156547 1.841513274803712 -1.180304596059874 -1.892106836988285 2.730616481400975 0.3181545324407898 
-0.4026247726688741 -1.468330379006730 4.989458140028352 1.994892888406138 0.9840114703854534 -1.656342341134892 
2.030055861847826 -2.045483441810795 -8.234213448805672 -6.203982804519235 -1.124046991480295 0.9904074764461770 
1.303915591514693 2.246585642422983 -1.480671546734759 -0.5426031949464285 0.01143496063232707 -3.700680666852767 
-1.311734775213563 -2.713133148630361 -9.746368170330090 4.665213375874454 -4.347125202081791 -3.346750310494137 
1.531763027778272 -1.525873141135327 -15.16461100890702 1.706779101856474 0.1294177456114342 6.258327412342014 
-6.566074456848710 -7.481644885728019 -12.92849667856893 1.807695492238755 1.851417827151713 -9.965423634312824 
-1.203447275124292 1.335376331862059 -3.467660161406368 4.971298103547361 -0.9649189594884143 -0.7108812408643287 
2.246828975180574 -1.494828824733939 1.306119347545802 1.991769405443881 3.744466000359550 2.229161723605231 
-2.059081936257389 1.303532878775490 5.578195653770022 -2.948134871922937 -0.5866928940931870 2.045971686867923 
0.01402365635674016 -7.471819218577238 -4.219060156367614 -1.774430498929913 -6.969772557225419 8.418893114601960 
-0.9021424157219897 -2.602090404781162 0.7133424669300624 -2.175495658245299 -2.257294151921830 2.056936272397786 
-1.266532611437266 -4.271598691115285 -5.374113929355366 -3.216057610015445 -0.03399315817744841 2.656913438150428 
6.025284065368114 -3.643729576994146 -2.129988348955025 -2.567208151860936 -5.041321137702541 -9.040778788835295 
-0.4164998455447904 0.6570790958596155 1.893669952614217 -0.1505198032155712 -0.3658489066067399 1.237552954028909 
-2.534107616748467 -2.386024530632384 -1.635043295055929 1.495830585313237 -1.821190002393526 0.001629945157646716 
-0.1196951227285692 -1.541587973134641 6.380407360850985 -3.330864434591057 -0.3037161448170878 -1.043024451776057 
1.162513884881052 0.9159430468061489 -6.117051744800309 -1.612343873587815 -0.7181499216571701 2.402027225484119 
8.895147298714285 -13.09745982094872 -6.317800772665783 -6.250981832968594 -4.865757193792170 -9.160878384641142 
1.797521719221401 -8.656676997340760 3.373138051803383 -0.7308053168815356 1.525583149315118 -4.726108286041851 
1.149526308490588 0.5019329659997943 -4.248737550662987 -3.432410678026695 -1.187939013361472 1.871100093064714 
3.506742372151694 -1.145037289332537 0.3922087685649301 -0.4869010497211421 0.6932674571194140 -5.183661517268499 
-0.2447596513356274 -1.156779138998277 -2.972230185042676 -1.224847273844216 -0.3120672912834279 3.106032166062306 
-2.974733283857332 -2.792225885851460 -2.701492234260429 0.3028804787288444 0.7055044791832484 0.8436816094282079 
-0.8191071120577625 0.07497146897390233 -0.3785503581105905 0.8868170515647646 -2.455957783630745 1.186121535035406 
11.87139962408347 -12.64888481898309 -6.724596820051939 -7.059424766873851 -2.537328005010730 -9.665756618843040 
3.294495061935543 -7.263767415623212 -6.712004599918457 2.442157485421961 0.8739530774690898 -4.576497675014470 
1.347651368981440 -0.3186055324994613 0.5209509459634443 -1.106239385047773 -1.218244500701870 1.732128654935853 
0.6865801278977154 -0.9485718122891911 0.8115488034588195 -0.1604898475043871 1.995502693955824 0.3812702940654505 
0.3880774161672795 2.017487655359915 -0.1694023935858818 -4.410844428528502 0.09712689098472316 -4.016281596941762 
-0.08546046611439814 -0.7521056978307036 0.07125441297559948 -1.863259811214851 0.6823687025674211 0.5409334752379943 
-0.5811550153591325 0.8398858919559160 0.3222120505847624 1.054328799649518 1.718718198466690 1.825344749010608 
1.135827000239125 -1.094420927825821 0.9273084388616146 -1.877313505230488 1.167035875396748 1.085131601732212 
0.2802159822460832 -0.06210049490010913 1.911006128920972 -0.9648631369064280 -4.870754001813762 -1.753698291784602 
-2.239160307669669 -5.995678108385556 -2.976602350062304 -5.573180600089449 0.5377461887177380 5.304697752559620 
1.595200555988713 -2.623248921855057 -3.360139854273247 0.2527051928877164 1.691162816121936 -1.457135596129304 
1.394689375167576 -1.027064636793067 1.764135922581104 -2.157444250522854 0.8654953353449525 0.5036177800058773 
-7.976387588407317 7.091447769121803 -13.00817941776744 -3.193652910529481 -3.059712178907173 -7.408399482047905 
-0.5887835358430601 -0.7755516896144137 3.959387187660095 2.408606527439972 0.9744263165092077 1.903596198984577 
-0.7242521394612079 0.9834907682084036 0.2649723692875998 1.284181986864101 -1.194227610851075 -1.797897177976529 
0.6650053306508796 -2.998434477944406 -0.2254444911997108 0.5982689337366441 0.08345835767068790 1.296610266037796 
0.3437227361265149 0.1617172566195181 0.8601475060085518 -0.6524726954307605 1.136865858565323 0.2831436677085822 
2.084011754752732 -0.2763972739008949 -1.002456754528519 -1.051574516782795 -2.270068390436945 3.690241752920599 
0.7427744638613042 2.459061471056693 1.666622322486972 -2.864170427611571 3.057348529605228 -2.675962859819240 
3.281862776134058 1.832312650982320 -3.006890421057606 1.469135372850813 0.2750669158164829 -5.583311767899895 
-2.767422886899509 -2.778469295016157 -6.886561367762761 -5.412807536512642 -0.5722412963342516 5.003803396879603 
-1.767632974940650 -2.524776408751571 3.618623411982092 -2.438602251532602 0.9213454129627672 -1.444412276628672 
0.8272857750226962 -1.229598832383578 5.488633447601483 -0.6254660661400540 5.403165597430012 1.289133327029567 
0.5443339497685676 1.518323849492381 -1.506556795505265 -0.9580341920480483 -3.247431309746475 -0.7733873396907701 
-0.6811847452363967 -1.235584797512041 0.2300371468454127 0.5488860057092606 1.826383671570441 3.247715660468268 
-0.03567726963247628 1.175253943686450 0.1352156593188135 -1.130065285335061 -0.4272467524562442 2.240601388737429 
-0.5130146021548487 0.2767796175201014 1.437787964688291 0.3321228513941204 -1.596264294508125 0.1273301458653715 
3.207412195637526 -1.792746405810458 -0.9800533038559230 -0.2963309841146796 -0.9187983216926265 -2.071358835307439 
2.402382882835622 0.3379629031018989 -1.955325520216920 -1.754395436112142 -2.142110885019153 -3.268125252278626 
-1.923927736638454 1.947470194031764 -1.032627503768540 2.945186668399813 0.2965129323106936 0.2843299235903692 
0.2220979792785710 1.069150497985378 -2.071761886517741 -1.400409398391563 0.9893207227114367 2.805992425415920 
0.9332393913666275 -0.4799838850340283 1.625857630096557 2.368336484084048 0.3712920283350887 -1.702505083054502 
-1.659086922572464 -0.4161434699060819 -7.483151901684351 5.787516388185812 -4.943440029158033 -4.941107687224788 
-3.806472536161730 2.997107856973285 -4.155981984902057 -0.9504724292765797 1.379411784810628 4.405851119769978 
0.1739078027543451 0.2268381099701116 0.3539167503011185 -0.5706021971787703 -0.4144848188237522 -1.675407459296844 
-1.159556275548359 -4.051384394118335 1.878350563183846 2.129683132983463 0.7472480369155998 1.998887451432262 
-0.05986422888825761 0.2746498976543927 -5.498065755138201 1.617955280935174 -0.09383477240032603 -0.007199094298957473 
0.4811711666617454 1.047550876037608 -1.474646707729395 0.06659736484959107 -0.3559285221369251 1.983258187440505 
0.9483372508979836 -0.4675711384929602 0.1294663752733136 -0.2810101980869253 -1.375542371051808 1.683716555927681 
1.191654674864985 -3.224634952634115 1.538737161408287 -2.146345658987944 1.115142242208951 -0.6972899218007181 
-0.8104530571352421 -1.495370750639609 -0.08915190628482822 1.158130407053497 -1.534867622017570 2.518745704765145 
-1.071549177736443 4.020480853420392 0.5359933965688982 -0.4872631369399808 0.1454620306426047 -0.9294882030549276 
0.9101795157704944 -3.612321723454876 3.645293353990890 -0.3778531934806103 0.3145734426638471 -4.017740273789481 
1.999833785080532 -0.7051391728604319 -2.720322274314235 -0.7942992325979127 -0.9311775608052150 1.632089981964666 
1.868581384672375 -0.1777803451812302 -3.379887969919911 -1.802653150058653 4.827659798369631 -2.668477807429270 
0.8580665400338080 0.7501962051846973 -2.268588043438465 2.281152543571635 -3.628558783854099 -0.5837936586966167 
0.8137284319532848 -1.803536609122255 2.388384469447553 -0.1040782574857117 -0.9256548129886316 -0.1842377909043627 
1.300277713858025 0.3517211498924212 0.1193333530450487 -4.434071025533481 0.1918170031460948 -5.569111756114128 
0.2494056944497511 2.301708035275811 -5.197260127051133 -3.876392839611011 -0.7535377726426590 4.424974640517234 
4.958748479533471 -1.214784446712383 -0.7966478641112412 -3.435359880766374 -4.553194044237088 -5.254598942092342 
-0.3530056844326752 1.447309940091694 -2.903253345825065 -4.551890907636883 -1.067142844063139 2.375284942392773 
2.143900126520975 3.858369159546411 -2.411671770409496 -1.650317642258093 -0.1454408624077905 -4.271408032303801 
-1.343075189071130 -3.413423599576408 -1.602960665935258 -0.9427173274297620 -2.456041022131782 3.252479486220016 
0.2654956977364310 1.166943906424494 0.3862177839999311 -1.754390083278301 0.1651632562360736 -0.8767373997137600 
-1.415843924233510 -0.2315091058916022 -2.038479921759004 0.8163524637934438 1.855472691522804 -3.040120307751069 
0.2913986727381875 -3.069550738312616 1.214890442917754 -1.281239615793667 -1.610076205852439 0.9516193797424629 
0.3293478729126074 -0.09998575791908618 -0.5798811962168208 2.207364838099692 -2.832436302043227 -5.846991439968734 
-0.7791747025738569 -0.1585853284631720 -3.256800202380906 2.290815866837359 1.444759879631978 -4.243482777856636 
2.555807153319677 2.161041140620889 -10.78616298808922 -4.133507319462002 -1.077998455626020 -8.396888600005449 
0.3630021779470135 -6.652961379679939 -2.725416270716486 -1.401679872264841 -6.390847569248307 -7.797446012462040 
8.550062933402685 -2.276088916868241 -4.846155514471094 -2.927893597314564 -3.035799320231105 -4.761203519564575 
0.2808495583611019 0.4037765856872791 1.446440946015718 -0.7172014634410996 0.2028935906030388 -0.6793087174147920 
1.670547413117536 -1.533990123215756 -2.482168495310762 -2.238692226725535 -2.792077399645579 -0.4993562914911508 
-0.5346028971957284 -1.980828000121625 -0.7467543419597011 0.6760032085276950 0.6435331005827778 -0.3597306638976778 
-0.7023515208489639 -0.5785374864876506 -0.1311184168501692 0.7218690117242478 -0.5940610259343589 -0.9749101921786690 
-1.052990005903586 2.066034995732583 -1.058821228177364 -0.2523638478841491 1.940591565399735 -2.422484503010567 
-1.346290125769444 -2.380324416263797 1.845983064197288 -0.6036492607827179 0.6281385236649116 2.678858525075005 
3.732218041647730 -2.584268957389138 -1.254418489359377 -3.576555371071663 2.325497485866412 0.1014231662383450 
-0.5625975506250742 0.1668229216814984 1.459291611768110 -0.1181239499423758 0.6217248904215639 2.336733680939281 
1.040172232804495 0.2409727856776357 -2.482103364323515 -2.803687780961097 -1.726776901320408 2.001573755355095 
-0.9041746168823838 -0.7574973295691027 0.3088139800725365 0.2197597424487707 1.499125398745890 2.267661388051622 
-2.174019298302797 0.1930682102822073 -0.2246062022945329 0.6879663075424952 -1.522100256167535 -2.302122216446457 
0.5232396279029843 -0.2625962820282909 -0.3739922106932516 -0.6030136314032990 2.115547337729038 -0.9105057443539953 
-0.8528981861680808 -0.7150901920567345 2.929742757523761 0.3445686299344312 -0.6107948861076369 -0.9877111164119919 
0.9131717017754055 -1.010935810836618 0.5091906080092105 -2.207437616867598 -1.634810574286856 2.458820402392722 
-1.160416750649183 0.1579478330679288 0.4674125339316819 -2.690541865127869 1.513224067712148 -5.890322858154844 
0.8962368465359621 -0.4351510545411912 -3.163530594047928 0.9514790374029252 -1.458520138661818 1.210957785751159 
-0.7098130405187782 0.9538450341607484 -1.958476745868413 0.3506843246685078 2.201171153867584 2.826594286536778 
1.015126975089488 -0.3730920130567643 -1.839488977946843 -1.596595842518248 0.8285438049523126 -3.331613736109929 
-0.4504537315200114 1.683768078334948 -2.771310420481360 0.1095700205334978 0.8655244289979702 1.438856099875524 
-0.001156258013003786 -1.388227737184552 -3.070717223135776 2.559535218769870 0.7952849159615827 -4.440611154751658 
-0.5880795404782401 0.5805077811041952 -1.505662650454936 -1.899155272477813 0.1988641723522526 -1.351951573073322 
-0.09634787391260365 0.5435461080323855 1.307110461879302 -0.8389661859005946 -3.232602948414117 0.2683888259297856 
-0.3935830167172315 -1.462434516830084 2.808852578761183 -2.072091885726429 0.2241072909597776 2.787329172164522 
1.473534812167118 -3.277011770564478 -3.267832734550566 1.036323783533203 0.02717676953958734 1.320434397174137 
-1.735739854032876 1.210099324616803 -1.697239610193827 0.06629020872895872 -2.917324491581331 -0.4903094188072106 
-0.8855765506603759 4.414806802720178 -2.019848429338314 0.7962657038204121 -1.324882128165555 3.122460509075095 
-2.196971707822492 -10.42680880607450 -1.797510341084746 0.2839927883858096 -4.213104128148338 0.9339577235872841 
0.7620955166284593 1.800162903106985 1.973922903491697 -1.143275298889526 3.513174246682817 0.7812598093931667 
0.8001158609854951 -1.021629972383096 0.9868129010035446 0.6052620047386439 -1.091614360746147 3.336821296387581 
-0.9564650169641499 1.465789762954299 2.498092391181467 0.1471275727916714 -1.934142663184139 0.08679623711138859 
-0.8618761956557023 -0.9125456969760324 2.298305564074574 0.4844479196896528 -0.3674427512087392 -0.7263703733529296 
-0.4103903827960304 -1.075883893252088 -1.843740514303640 -0.4178464702537554 -0.4083503709436462 4.676545858737079 
0.6976807509267775 -1.427246008767875 1.010700602508610 -0.4110110384081610 -2.479110491160171 0.8592181449908280 
0.09736690316127902 0.5808300032950848 -1.319293106697691 -1.186922908910067 0.7600242267265476 0.04604705519350062 
-0.7382642693591134 -0.8213961583163233 0.1466021933488096 3.027714679343017 -0.5487708151767392 2.086741198737040 
2.992101771870352 -6.320151653841421 0.3934657862577327 -3.213123278792839 -2.805548441387035 -5.985513711131355 
3.747335663823579 -4.623629673629509 -9.479594303292632 -3.767310650620589 -2.644485031237263 -3.750459251789016 
1.652025809244669 -0.2093997514975638 -2.112587683437539 -2.025151981505691 -0.8723620202686269 -5.976133691901534 
-2.158879971502691 2.106065743907859 3.019252839712312 0.8003728393224269 -2.552800701582792 4.302793665349135 
-0.6439488241467329 1.642449920339659 -0.2404492258161011 -0.5607414173315591 -0.3143069011856440 3.052424797352700 
0.9086885236289160 0.9976121464846475 3.763719092318289 -0.1618274484564137 -0.6133332231750115 0.7384113105040712 
0.1690223967519788 -0.3886809457721474 3.360580376656405 -0.08426731495938691 -2.082479630798941 -1.554375034275700 
-0.2931977541615153 -0.5658632517262433 -0.3663380521240425 3.729553740605800 4.032398167717985 0.1492254618810665 
3.386567670929447 -0.4448388698048297 0.7356146366439674 1.472362221859627 0.3144033206691711 -3.653368647294572 
-0.1694448827996824 0.5925141499199178 1.763137067321207 -2.487059856490097 1.291191336972998 -0.6239469719076314 
4.348764702316782 -3.070126505919326 2.021009730632512 -3.295320619622295 -0.2337828213712311 2.142695037099354 
4.931441300895434 -1.400979112309662 -4.332004110258144 -4.700273779659007 3.115567558544200 -10.04777397026470 
2.906024086907898 -1.023955146964540 -1.195573384417910 -2.262718312572003 -2.544893768080147 -0.7339482604828154 
1.003928423096481 -0.8318064881977377 -0.3989968408791761 4.001158750771427 -1.644525873437982 -7.604879598939425 
-0.5319076854145479 -2.162896393551748 -0.003646280625678899 0.6319479560094978 -2.501618915385809 -0.09548562199101440 
-6.580303752456808 4.194240406639561 5.864795779128682 -9.203223152181275 2.014228002110162 8.183434977575520 
0.7557340262534883 0.1120036813297957 0.2036177747386120 2.050294523746792 -0.1443965622113483 -1.169749991459099 
7.220259600225811 -4.465448667444135 -8.681065728630116 -1.629649019296495 -5.003891561149855 -8.267747730770521 
0.5065529883105139 -3.876363926316030 1.552798650171988 -0.2027765541629569 0.9526492416959479 1.973699520015508 
1.513444267505596 -1.061127289527751 -6.401477533433996 -3.330840449288868 2.880928521214347 0.1716914334121970 
1.992126724831326 -7.635375346188113 -1.096671396657529 -0.06806668167085556 -3.712400635597143 -2.442395865970711 
-1.981562841827975 -2.222378355363822 -1.399593776200872 -0.4183674498671268 0.6065076220756578 2.697440220744244 
3.065101970212992 1.653583086302859 -1.219302347202362 -1.697149160745322 -0.9856182871784402 -2.698079473388896 
1.211836506163840 -0.4857755758854313 -0.7394416975501562 -3.071328278866735 1.667292116669067 -0.4647469136499967 
-0.3893035266696642 0.6001994956579760 2.473812876003362 -1.386631295897127 -2.291896840076941 2.107273726749837 
1.417410995547898 -1.208704326294139 -2.401734967014097 -1.533673329130958 1.758926073491170 2.493269312617827 
1.882146107990223 1.743848683717935 -0.4388482611792082 -2.434951357615532 -1.043279723697772 -1.594188564970346 
-0.1164725979215007 0.08418422593909950 -0.9837529474125799 1.433960505626657 -0.5005177921011577 -2.634311890775519 
1.978564223471176 -1.413629519869522 -3.775501009213026 -2.332949697931712 -3.712174456778016 -1.776508161303182 
0.7898187551788793 -0.1296834030007407 1.190518814143452 -1.052776802486492 -1.221058512006321 -1.328033276978143 
8.033046467214270 -2.587747067708213 -19.89634507088658 -17.99451262642645 -4.029136060145683 -15.77973110692964 
-0.8753429613207772 -0.9886893045371936 0.6052736661956669 1.099449055861431 0.3749162921065783 -1.637976281870135 
-4.741268682772057 -4.751787483109077 -3.075302543051842 3.412710978912029 2.307484165674400 9.758422572884230 
1.319900663082693 -0.2238450075532176 -7.356862534615312 -0.7404407535632342 3.901835927743528 -5.857017158324764 
0.6546593190258841 0.8670468467453285 0.7908060240469696 1.801949044977499 -1.665991222903917 -3.219179615209252 
0.6846975604117393 1.498262502504440 -0.7872478791978579 -0.8155428816186270 1.382467335439637 -2.292847080457193 
1.913227224758991 -6.169981372606614 1.142427492900477 -4.727946555570978 -2.333916245458632 11.94755578168016 
9.692571572110172 3.649094257402848 -6.240272005898634 -6.047196309917803 -0.002390769229766304 -12.95562146526230 
0.9500645694788676 -6.146407068099570 3.968829093489434 -5.829861178296794 -2.725400811895076 -2.300914401880226 
-0.8653980355431398 0.04779661088829301 0.8433201983529105 1.552916306458726 1.838784707557850 -0.8516142527720969 
1.950892056638423 -1.608369704550773 1.283234820450997 -1.712689383718445 -1.549947447064131 1.003196889702665 
-0.6185439549950908 -0.9993146884376853 -0.4681319631856378 -0.2633295013827878 -0.9870393911264354 3.566235041540015 
0.3017237374893399 0.4918576745896047 -1.074035024698070 -0.5329714425050471 1.026825134873193 3.474586671182881 
-0.4713825978458917 0.4989967504442217 3.239933945249622 -0.8729153692006517 1.123187529718018 -2.874537214239235 
8.574291655027368 -3.718799113580829 -0.6003786612732323 -4.423539162548642 -6.203694446865109 -12.67707294940520 
2.765806252359387 -7.058319932326550 6.092904389415163 -6.978620387594464 -7.672239970930880 -10.64787997548470 
8.327572584274849 -5.185840488960667 -9.362853496186005 -3.693216244224162 -1.142040871113699 -8.397085025068396 
0.8589426536722419 -1.270774026929954 -0.9471872290687479 0.9854564626430395 -2.465912014727878 -0.2973038920616542 
1.911465055033409 -1.270934375045818 1.054799452546361 -0.7405292712252494 -4.344872572269686 -4.628001951597950 
-0.5785905297712663 -0.9762710604212017 -2.188883650214381 1.352804410165304 -0.5188319303584132 0.5176811465148197 
-0.3238658386248404 1.397452903820320 1.877616129676891 -0.5729957401091124 2.647749510209473 1.217787195032400 
0.3145673769970936 -3.592697140387671 -4.440204982831885 -0.4275042513181291 -4.582834962111130 -6.197543188454832 
2.706805614127156 -2.005008489145612 0.9223849192658515 0.07918422261982241 -2.190062811402912 -4.931315412967132 
2.529782933415685 1.051876768792497 -3.081386435025100 -8.400211382494206 -2.458072324872950 -5.478246289816261 
0.7984130902918439 -3.931390531155768 -9.834719536077198 -7.275289282619949 -2.197748262689333 4.603874071911291 
-1.010991693794235 -3.685194638454291 0.7243234057461293 -1.550905238233642 4.077515972892467 4.333196230163569 
1.888722171685045 3.697518792992844 0.4564079670610546 0.5823322374492357 -3.615379639541733 -3.657748675870895 
0.2860661286830742 0.5109292330526772 -1.001091529258720 -3.003679452590923 0.4073524878793475 -1.578268460931960 
0.7273576496983611 -0.4273519525880487 -1.099120044804810 -0.8548022554493326 0.5244978853210368 -2.094071498895270 
0.1802842240259645 1.787809198270305 1.537861775378607 0.2103977576644629 -0.6757365574169393 -0.7337767592900845 
-1.957471659463976 -1.515737886632465 -1.597448272215331 5.131894953256344 -4.727580819901048 0.3481679775556364 
-1.387745150713264 0.5813211812925040 0.5615970079835313 1.206668213931083 -2.116013859070087 0.9840990242466295 
0.7148195814387974 -2.908310029703715 -3.367998660599450 2.841583386368144 3.403115290140777 3.045213014432520 
0.5388793003371270 2.576680330019672 -0.4990552554684887 -2.199616409733839 -0.07379241359045316 0.9604715377957351 
-1.225811480707176 -3.653562329054686 -0.8724561613579713 5.597012276401722 -1.055491545739739 0.8541702407273685 
2.072059944696492 -0.003048491776621979 -0.7285693256299266 -3.043022560583367 -2.872517275474485 1.682866324960334 
1.406627462490491 -1.351694950472558 0.5801197444981195 -1.746930578393727 -0.4811294295757091 -0.9879973994017459 
-2.176159221749687 -2.746839329410939 -2.264544507222138 -0.5691658108290591 -0.3421706479574432 4.424361296528229 
-0.04602655791131188 -1.768707323643146 -0.01006451401987962 -0.3462929892554727 1.077731321182188 0.8728238151074221 
0.7999450112883262 3.562396466663017 2.150120016773821 2.239089548172734 1.134240377213376 -1.249836158588748 
0.6301936752111676 -2.124696243643762 -5.831917690029003 -1.646891705590035 -0.03244272612815916 1.969278394189999 
0.2836427574908914 -0.2983138791921206 1.829064501360993 0.5726237233204663 -0.3003668255739440 0.6408337990300043 
-0.8028022177350556 2.220202639877227 0.2733037706769553 0.7059457351052325 -0.5658407789672516 0.3968288939943606 
-1.618466866401949 0.5702265203501521 1.518555717950614 -2.345634785153487 1.591307181161924 0.6215889410556343 
0.7292392910433895 -3.863128588957219 -2.399993673931942 -3.663421739829802 -2.428100229297350 -0.3802551532274728 
-2.380597216778770 3.605561442877187 -2.096773976769179 -1.384904797166781 -1.295341891652288 -0.6170389315912981 
-0.5665178829157180 -1.082308777466233 2.013097646517637 0.4428389715691326 -0.3754252439382245 1.765126738087334 
1.558653778066231 1.164967568499253 1.057489877969156 -0.6586427060526953 -0.2052394367630933 -1.375622105972011 
0.5464030260960031 0.2312112421816325 0.7844163830001005 -0.3159960503888398 2.735743184312731 2.917436439103485 
1.384845494209716 -0.6506273412578616 1.446388981348125 0.1877663268067771 3.057671025286901 -2.105243242905993 
1.886011408235833 -2.314922346296926 -2.338445998332265 2.742110791202338 -1.074959471387949 -3.001421571447522 
1.494277280425487 0.1044293749859452 -0.9250398310462032 -8.198403062256018 -4.292327385022119 1.123250316329230 
-0.8267724290542894 1.620355133391159 -1.288059558188927 -2.515076791535305 -2.668784134682821 1.345013708578351 
5.294841833270407 -11.16535404981447 0.9085287740273812 -3.626491789301706 -1.614112367771300 -9.594978458935392 
1.795722048465415 2.553317590981503 -0.3444889820587809 -2.270996073562190 0.2626287632223298 -1.839580245573955 
0.7628871356694001 0.4809162897106075 -0.6422801527382651 0.1778092726886986 1.105977233941396 -0.5688632964428493 
6.255155759745962 -5.350880966632453 -1.065262759687507 -5.229963703878900 -4.964900499058283 -11.56367380077071 
7.782859186443963 -3.438191780053562 -6.179376368216104 -6.054397491808782 -2.549048153126710 -9.925420710990522 
1.537377273755699 -2.335252199341697 -2.755742586197277 1.421937537957376 0.1722533173725384 1.543967414606930 
0.1205753338792550 -0.9630276870247440 -1.319294920864757 1.101668041896493 -2.726847363216995 2.728871299828291 
2.041109353024985 -3.160814844543171 1.276922842645921 -0.06455557708117372 -2.348152166778683 -5.039145073041151 
1.602074526639696 -3.169073262792387 -4.743682159692959 -1.751485518980495 -3.314484763556020 -2.455659689808061 
